svm_type c_svc
kernel_type linear
nr_class 30
total_sv 1032
rho 1.5510653096956044 1.572294550219445 0.1189357659522615 -2.9869481462398957 0.06740041232926859 3.0199372537766553 3.7233290270490804 -0.19387550193555808 3.112261670704142 1.1933726297811014 -0.35526261227897726 2.63767735453166 3.8037124008847134 1.1031322375238843 3.522304877379283 -0.2388160276663042 1.9886765896305603 3.830931731974302 4.55015399309381 2.189816718088177 1.8863859358985136 -0.5709319288771498 1.3984401737070131 2.4969351816532943 2.459490586020996 3.9470960469204837 0.9688044350977754 1.716137781699472 1.1185393609616894 1.0110235509912164 -1.89910475862076 -2.915698980703715 -0.49772455775249835 -0.507871076401105 -0.6842348947483136 -2.0218501641831295 -1.127380078989378 -2.1126385800052736 -0.35643778477917604 -1.6070407549199015 1.1886873617259779 -1.6681990119294816 -0.9001178322117694 -1.0655097192401772 0.12798497417172844 0.12461442785418357 1.6746838907599924 -2.5152929372120867 0.2783533695856046 -2.6900458655412054 -0.8217908442168025 -1.7591381687614693 -0.6188739563124459 1.8211893788503049 -0.6176809725501865 -2.1521373686230034 -0.5878654293030915 -0.9918715301285883 -1.4408881638557063 -1.485643183518218 -1.595880935702654 -0.9135551222874578 -1.4232952261804188 -1.6814807771135922 -1.1571320004705052 -1.2172039900806633 -1.5040070017283997 -1.1630695446988384 -1.6101095988179055 -1.5946019318355358 -0.9957041414431123 -1.4881891297728573 -1.9731413374356024 -0.5963657929593059 -1.2358589261493318 -1.7116444226278018 -1.5952928464795335 -0.7894220178982387 -2.0141382054866654 -1.5525372933061536 -1.2576141506671108 -1.2892634338862683 -1.5221419259785014 -1.6566386048317545 -1.9387090277185066 -0.20113019559526116 0.828116464494799 2.598367208010404 -0.3024966898262162 0.919406815176582 0.10749509660641658 -0.4814355483649347 3.0635760871858833 2.555337321357997 0.874486486069544 1.7831956348765767 -1.1571721493469673 1.2386812218378307 2.245206707109798 3.5383239760644605 1.8711125873066827 0.7923152108446364 0.23750730185211283 0.928358787649423 0.7588707437714961 2.28674280787119 3.9864452754495696 0.3602783386593359 1.1072254151334087 1.489252164420494 1.1967179379717576 2.2736801029851517 2.0083443948955084 2.142443104181046 2.664933332924949 0.6443438528426901 2.136679082244783 2.515909293413449 3.3633476139213347 1.5870144342303196 1.9631990736404719 3.2365969085636936 0.8331792836114709 3.031631942182903 3.1370098049924398 1.9583521565553765 2.612926583875949 1.9707698034470151 0.888451410013361 1.2580772498324333 2.2132495076512457 3.1361113191228154 -0.17685448650054392 2.3341955282330815 3.2547353990492995 0.7745228017711268 1.3463069862311305 -0.551863773960483 -1.6516123605932755 -0.8382392366490774 -0.2851244108957086 0.780672278958669 1.6630260723856698 -0.4999869402915898 0.6048942163190327 -2.1524510753925363 -0.5573461512616151 0.8583512091456692 1.9804770859531502 -1.3199231787516659 0.7466559960378846 -1.5483354886164642 -0.379041637205849 -0.6579667174446823 0.06347189024896785 2.1287623739912176 -1.6773860540908085 -0.7648455396418825 -0.45141416232536713 1.4737285266908489 -1.47724876144067 0.24926329184223997 -1.5878824848244504 -1.9924486124561773 0.6159252328882837 1.9064994259914883 -0.769726362554906 0.44515054680856636 -1.5820899070143615 0.213940691880447 0.40504761331870703 1.892769831173955 0.3888297347201175 1.4907643574944232 -1.2279441764618948 -0.8178593318844098 0.014397958459918443 0.42150004429925514 1.9297927921718336 -0.75743351770143 -1.2519558189784339 -0.005749467019550525 -2.7230450970201225 -3.130535492741755 -3.6406604666656257 -1.3174061717699093 -4.013140570774632 -0.05324937711203288 -2.140225400620352 -2.128888741973627 -2.382423775641738 -1.942157565987488 -2.6360254041353897 0.6576886083763065 -3.1147803174997133 -1.5625530272698076 -3.1378322960850187 -1.726900697904231 -2.7867505059703257 -2.9046928561700494 -0.02631001674638703 -2.3357428611388005 -2.5952672526974765 -3.6194077922175847 1.7469051982837005 -0.9711209519650073 -0.4775157147360232 2.638670520088596 2.5852055020024016 -0.0968543082903553 1.2089389568073048 -0.468516630283415 1.3706658133738685 -0.10810443250970876 3.253181163309407 1.0192919072321736 1.2103555835465225 -0.37345683882390573 0.9428975133547781 -0.6063311094937268 1.2557561456692006 3.1346470665066275 0.5564063488925032 -0.17572343832234372 1.0712770094047144 -0.6367631025322397 -1.6099351639117339 1.0540164911878884 1.5969705544014976 -0.45079194023301195 0.24008049978052443 -2.8841585060756403 0.06387984313172156 -2.0429945884660676 2.3668671560898256 1.4752610204877374 0.22610717957345144 -2.1826287622281817 0.2149650545823681 -2.240348078180979 0.9380286025960112 2.0422382896272526 -0.37742013138545344 -2.058859827176296 -1.6576771617031527 0.651138916821272 1.2513262126544227 2.4209443668976767 1.5416389964216526 1.2408136824834257 -0.35297923708352325 0.22020126735532702 -0.48215472344972454 3.114693889601686 -0.7675775942106872 0.39105600953272285 -0.03401083435046953 1.1531668771044856 -0.6054324959284985 1.2121806564077413 3.097077176449641 -0.8671987227392722 -1.0710126728619767 -0.30632760143405574 2.2465243816197176 2.934530050169618 -0.3199558408729609 1.579166006732462 0.7301680370371186 2.27336054923215 2.7003582230576493 3.4709431046007313 1.2176447929307692 2.5239224112772507 -0.25991448471482653 1.0233918748262854 -0.179845660002134 1.605103650397312 2.665218885528488 -0.5249748205086195 -0.1528785849949184 2.5611564843704695 1.9610763033709897 -1.6586172428989379 -1.092796968229716 -3.0428291829949536 -0.30804148993405966 -1.4298665186672852 2.1321359873022616 0.5133958260015101 -1.2211980427620028 -3.051694981060679 -0.01389268990339483 -1.0986343993540848 -0.7817231493712793 1.2803830289335705 0.07484433017625511 -1.7455007199802406 -1.2141492216825989 -3.564452924127284 -2.3423880558662082 -4.900503228137819 -1.320889888025632 -2.390123655307484 -0.1412717861224147 -2.34073141027334 -1.4554618763973133 -1.203709645703114 -2.175611268079341 -1.633514799264137 -2.8150031798044983 1.6104659250607463 -2.729432122888375 -3.0124425899972653 -1.5256425432053962 1.8940356892993393 -3.2229347835802598 -0.41743490107618514 2.9290197383323577 3.3741905389334517 1.2402404932528346 1.23712690517816 -1.257896467353259 0.5877087301655104 1.5011235557291447 0.5476800245339459 2.007758974501173 0.7318790206085186 -1.3962049350611592 -1.1107843752798072 -4.226877814587242 -0.9985877215798369 -0.1835849829408501 1.402457665219916 1.514917675240726 -0.7502278551679864 -1.7755606204460306 -1.244662255000844 1.0348888103657827 -0.47433836757477577 1.94337455979719 -1.0940661546259431 -3.461375626511291 -0.934486415628935 1.1583343548260285 2.4272448874950627 3.334838494625216 2.6215158195860226 -0.1729134727863415 0.31945754852192565 2.449889014698562 3.3923623283962545 2.27565862014128 3.1727281503823095 0.6117084852514975 1.0635824055574623 0.21918280077232494 -1.4528222728551634 2.914091532861984 -0.39658505430373847 -0.044027255014816774 -0.9646451938846864 0.5472150015863494 -0.2523491398674095 -0.04482684777714792 1.7506322051741074 -0.42544674115396125 0.11168450517473473 0.5444061604404861 2.429172055203475 0.89828705701596 -1.1711927478613984 0.15082743540757576 0.47563431417936797 1.5028912510741108 0.4778189228088101 3.7820353469979895 -0.7079567716166371 -1.788477923607909 -1.2547877631899371 -3.4580804947508947 -2.5315714088271193 -2.946956346579256 -2.162966955733894 -2.081992308816729 -2.4875259998359938 -0.7715123012464368 -3.2790407004130837 -3.172791890933658 -2.03823639580244 -0.0015738394142964117 -0.8839289032717774 1.0804489002919686 -1.1258616755102087 -0.24791122040107433 2.4478732209270424 -0.23666539392446984 -1.318773920627712 -1.37406364446584 -0.5960438702533047 -0.2582599579443655 0.16740463078485945 -0.6166538492722643 2.9556875194820296 -0.7780049676922248 -0.8778991606705889 1.2804429586008637 1.614619543785399 1.398406317444672 2.694703528621246 4.18036382938214 1.3251441830331456 -1.062370519100313 -0.5371737449597439 -1.51066207474233 -1.1673297326831795 2.9417866767094893 -0.1795067530029451 -0.7016112432769076 0.07212191147494812 0.12123410689711542 3.2293485774800685 -0.9069627611741652 -0.8399371254185066 -1.6104735727407988 2.4082090282047375 -0.9349714021389997 -0.6483553979797165 -0.8790505481985548 -3.1673788494315698 -4.325682489945507 -2.5271669510221524 0.6691580424384974 0.24525469428982516 1.1462614452453543
label 20 28 27 25 0 3 22 18 5 8 2 7 17 12 13 10 19 15 24 29 21 23 11 26 4 1 6 14 16 9
nr_sv 32 29 27 23 30 31 33 49 30 33 47 40 44 30 48 36 33 22 38 37 34 31 45 31 34 36 31 35 31 32
SV
0.0 0.0 0.0 0.1518262325365842 0.0 0.0 0.0 0.0 0.0 0.0 0.5821358454791298 0.0 0.0 0.0 0.0 0.0 0.0 0.0 0.0 0.0 0.31306113736887775 0.0 0.0 0.0 0.0 0.0 0.0 0.0 0.05347643695702615 1:0.577805 2:0.484942 3:0.793732 4:0.23903 5:0.198969 6:0.147938 7:0.873345 8:0.535071 9:0.529112 10:0.102392 11:0.981741 13:0.667649 14:0.090935 15:0.552765 16:0.260771 17:0.347095 18:0.136216 19:0.300377 20:0.188523 21:1.0E-5 23:0.6043 24:0.187329 25:0.371197 26:0.328949 27:0.47631 28:0.219509 29:0.149618 30:0.123831 31:0.708657 33:0.077631 34:0.120011 35:0.151446 36:0.206453 37:0.299477 38:0.160193 39:0.571484 40:0.188837 41:8.0E-6 43:0.579144 44:0.186516 45:0.508775 46:0.292705 47:0.568253 48:0.298582 49:0.887451 50:0.205219 51:0.627805 52:0.616025 53:0.278804 54:0.675559 55:0.579048 56:0.431248 57:0.523984 58:0.652097 59:0.461143 60:0.503184 61:0.567031 62:0.466986 63:0.402098 64:0.524439 65:0.105719 66:0.4811 67:0.726637 68:0.368132 69:0.576153 70:0.486518 71:0.639081 72:0.379959 73:0.524467 74:0.449606 75:0.55721 76:0.365942 77:0.681609 78:0.344264 79:0.492578 80:0.52472 81:0.428127 82:0.23712 83:0.355797 84:0.41463 85:0.390947 86:0.47382 87:0.780989 88:0.649187 89:0.600979 90:0.641429 91:0.521659 92:0.490762 93:0.494025 94:0.483824 95:0.570025 96:0.551069 97:0.377312 98:0.404151 99:0.227788 100:0.415733 101:0.45494 102:0.470032 103:0.69054 104:0.611724 105:0.657786 106:0.559462 107:0.524216 108:0.550412 109:0.627051 110:0.592121 111:0.575514 112:0.657342 
0.0 0.38106145191682533 0.2316698738474005 0.0 1.0 0.865480703009939 0.0 1.0 0.0 0.0 0.6849176433447074 0.6231618165740876 1.0 1.0 1.0 1.0 0.0 1.0 0.0 0.12610769213634873 0.0901929866080428 0.0 0.0 1.0 0.0 0.0 0.2520424796578587 1.0 0.0 1:0.203036 2:0.550381 3:0.220493 4:0.321542 5:0.161276 6:0.219264 7:0.179097 8:0.567058 9:0.571764 10:0.251184 11:0.981696 13:0.296617 14:0.237583 15:0.608219 16:0.410417 17:0.311268 18:0.194148 19:0.339673 20:0.520977 21:8.0E-6 23:0.357485 24:0.53028 25:0.443492 26:0.592348 27:0.176805 28:0.362543 29:0.220124 30:0.299138 31:0.708963 33:0.048358 34:0.293132 35:0.22032 36:0.365616 37:0.321277 38:0.180293 39:0.502604 40:0.501998 41:9.0E-6 43:0.174062 44:0.512048 45:0.452077 46:0.500326 47:0.111246 48:0.372495 49:0.874547 50:0.189176 51:0.640464 52:0.613126 53:0.234032 54:0.746046 55:0.558975 56:0.341411 57:0.720579 58:0.498891 59:0.50974 60:0.635305 61:0.323893 62:0.620292 63:0.385599 64:0.466177 65:0.224697 66:0.353418 67:0.705561 68:0.485042 69:0.403408 70:0.577022 71:0.585077 72:0.332221 73:0.587622 74:0.420011 75:0.494373 76:0.473483 77:0.554694 78:0.41443 79:0.462309 80:0.542649 81:0.478248 82:0.209681 83:0.353518 84:0.502675 85:0.557492 86:0.431361 87:0.627931 88:0.64383 89:0.632183 90:0.615035 91:0.599867 92:0.675882 93:0.615961 94:0.625111 95:0.661735 96:0.564014 97:0.468543 98:0.376494 99:0.176019 100:0.393195 101:0.530137 102:0.460005 103:0.492239 104:0.539173 105:0.62232 106:0.44765 107:0.45314 108:0.572132 109:0.604632 110:0.581632 111:0.539631 112:0.578327 
0.43689058721326673 1.0 0.9630244766543402 0.0 0.0 0.8099787908933072 1.0 0.7432390881671055 1.0 0.0 0.0 0.0 1.0 1.0 1.0 1.0 1.0 1.0 1.0 1.0 0.8821362251309485 1.0 0.0 1.0 0.2815170730720868 0.7260078011447334 0.0 1.0 1.0 1:0.165872 2:0.22958 3:0.274946 4:0.342922 5:0.094622 6:0.02363 7:0.217984 8:0.181642 9:0.25346 10:0.292308 11:0.983444 13:0.274206 14:0.276765 15:0.290688 16:0.449406 17:0.24798 18:0.184815 19:0.422814 20:0.530719 21:1.29E-4 23:0.382962 24:0.544706 25:0.479834 26:0.61622 27:0.099455 28:0.262018 29:0.022172 30:0.086144 31:0.708271 33:0.006038 34:0.088142 35:0.026936 36:0.087518 37:0.31508 38:0.141703 39:0.140661 40:0.375236 41:4.5E-5 43:0.190765 44:0.392824 45:0.128235 46:0.336325 47:0.096132 48:0.232058 49:0.900619 50:0.639369 51:0.497751 52:0.407396 53:0.165928 54:0.547427 55:0.595356 56:0.361247 57:0.585736 58:0.627996 59:0.454884 60:0.527704 61:0.55935 62:0.462258 63:0.396994 64:0.507349 65:0.094548 66:0.547577 67:0.744428 68:0.300919 69:0.59416 70:0.492104 71:0.601923 72:0.395832 73:0.538118 74:0.419151 75:0.559933 76:0.385327 77:0.656321 78:0.334647 79:0.531044 80:0.486456 81:0.266619 82:0.760226 83:0.442817 84:0.888647 85:0.731313 86:0.579987 87:0.665255 88:0.489118 89:0.569654 90:0.518323 91:0.505549 92:0.497327 93:0.587806 94:0.597326 95:0.536069 96:0.520226 97:0.199629 98:0.524757 99:0.224743 100:0.640423 101:0.839105 102:0.51431 103:0.530404 104:0.509222 105:0.5417 106:0.409398 107:0.435828 108:0.476994 109:0.579573 110:0.566417 111:0.497277 112:0.558478 
0.0 0.0 0.0 0.0 0.0 0.8175288194282428 0.0 0.0 0.0 0.0 0.0 0.0 0.0 0.0 0.0 0.0 0.0 0.0 0.0 0.0 0.0 1.0 0.0 0.0 0.0 0.0 0.0 0.15403156729881987 1.0 1:0.686677 2:0.417271 3:0.595331 4:0.201547 5:0.338717 6:0.132041 7:0.446197 8:0.452851 9:0.474218 10:0.0837 11:0.981816 13:0.604051 14:0.072559 15:0.510704 16:0.215423 17:0.290536 18:0.156006 19:0.272654 20:0.2052 21:1.2E-5 23:0.580475 24:0.205851 25:0.324486 26:0.346442 27:0.24471 28:0.162639 29:0.14139 30:0.082223 31:0.709387 33:0.080986 34:0.077113 35:0.147681 36:0.157375 37:0.282434 38:0.201427 39:0.452733 40:0.219018 41:9.0E-6 43:0.406953 44:0.225716 45:0.3773 46:0.283952 47:0.175531 48:0.160628 49:0.904876 50:0.240746 51:0.531018 52:0.74149 53:0.25406 54:0.631834 55:0.591078 56:0.4854 57:0.460681 58:0.650181 59:0.504937 60:0.512996 61:0.460985 62:0.54992 63:0.427656 64:0.426123 65:0.153106 66:0.447813 67:0.718898 68:0.398109 69:0.543086 70:0.501693 71:0.61779 72:0.397679 73:0.51388 74:0.449316 75:0.554573 76:0.38559 77:0.653453 78:0.342422 79:0.537772 80:0.476637 81:0.402807 82:0.25693 83:0.475508 84:0.431969 85:0.478087 86:0.629583 87:0.775727 88:0.595246 89:0.517657 90:0.480193 91:0.459007 92:0.532906 93:0.505371 94:0.399005 95:0.433286 96:0.413504 97:0.314515 98:0.419944 99:0.299968 100:0.584569 101:0.568694 102:0.627343 103:0.763349 104:0.628896 105:0.695138 106:0.539352 107:0.575011 108:0.664935 109:0.675716 110:0.641224 111:0.628198 112:0.70245 
0.17497464956823677 0.23032612671236166 0.035597502647573484 0.5426735415715324 0.22921064956412643 0.4724166719796038 0.2675171104422084 0.7182681418942208 0.6744141121589203 0.4051746836779997 1.0 0.33511278897396335 0.0 0.12242814381281426 0.3690256820464623 0.5389368169743405 0.2531718157700864 0.314825370738784 0.655533062858816 0.4569456025323314 0.3133679793425327 0.3337921250154261 0.10623522211891318 0.48878048555771275 0.16354210468889052 0.2833168391053227 0.1965197004602303 0.18588851428670095 0.14957292115930207 1:0.167748 2:1.0 3:0.180531 4:0.091615 5:0.145954 6:0.690514 7:0.220269 8:0.953479 9:1.0 10:0.290046 11:0.981435 13:0.236901 14:0.27469 15:1.0 16:0.447551 17:0.385797 18:0.067146 19:0.081255 20:0.591466 21:1.0E-6 23:0.286956 24:0.599856 25:0.079827 26:0.620198 27:0.273277 28:0.059332 29:0.682143 30:0.768281 31:0.70786 33:0.041429 34:0.762346 35:0.666376 36:0.782464 37:0.338696 38:0.182152 39:0.942587 40:0.361381 41:6.0E-6 43:0.373865 44:0.38064 45:0.762744 46:0.28579 47:0.29002 48:0.090467 49:0.820669 50:0.272361 51:0.770552 52:0.167045 53:0.723816 54:0.282155 55:0.8316 56:0.255963 57:0.751115 58:0.415844 59:0.748337 60:0.280102 61:0.738168 62:0.305889 63:0.624585 64:0.268978 65:0.267024 66:0.316311 67:0.924084 68:0.081668 69:0.818471 70:0.32732 71:0.858747 72:0.159807 73:0.779671 74:0.134484 75:0.819938 76:0.110164 77:0.965431 78:0.008269 79:0.82621 80:0.222262 81:0.67942 82:0.154199 83:0.148152 84:0.167555 85:0.183904 86:0.163748 87:0.185706 88:0.171768 89:0.172502 90:0.169293 91:0.151818 92:0.180981 93:0.185303 94:0.209281 95:0.249572 96:0.260119 97:0.80486 98:0.417411 99:0.239642 100:0.400906 101:0.383461 102:0.410547 103:0.458991 104:0.435453 105:0.46909 106:0.37143 107:0.368552 108:0.424142 109:0.438226 110:0.440549 111:0.404201 112:0.439615 
1.0 0.36800671880682256 1.0 0.0 0.8515286229918657 1.0 0.0 0.0 0.0 0.0 1.0 0.0 1.0 1.0 1.0 0.6067664818658892 0.10091179697506383 1.0 1.0 0.0 1.0 0.0 0.19189947777209812 0.7191353697156855 0.8040145435433517 0.007188023189489237 0.0 1.0 0.40285079769289084 1:0.178342 2:0.552438 3:0.14751 4:0.174392 5:0.115615 6:0.114549 7:0.151734 8:0.372236 9:0.58447 10:0.175404 11:0.981663 13:0.371078 14:0.160929 15:0.620792 16:0.323822 17:0.314338 18:0.189312 19:0.176852 20:0.419031 21:5.0E-6 23:0.298676 24:0.425227 25:0.212497 26:0.521408 27:0.102616 28:0.181284 29:0.113209 30:0.189275 31:0.706094 33:0.023864 34:0.190033 35:0.116374 36:0.202637 37:0.32224 38:0.164666 39:0.354286 40:0.359913 41:6.0E-6 43:0.220032 44:0.369452 45:0.299455 46:0.375334 47:0.084634 48:0.195354 49:0.89963 50:0.12771 51:0.713217 52:0.548986 53:0.196759 54:0.922045 55:0.276385 56:0.623213 57:0.471689 58:0.612131 59:0.481399 60:0.594726 61:0.383601 62:0.585179 63:0.401131 64:0.453675 65:0.120822 66:0.432142 67:0.758145 68:0.357586 69:0.532816 70:0.545585 71:0.549176 72:0.42038 73:0.529764 74:0.420644 75:0.566018 76:0.380978 77:0.660902 78:0.338602 79:0.519154 80:0.503561 81:0.372196 82:0.205582 83:0.262 84:0.378966 85:0.435417 86:0.318961 87:0.473905 88:0.545023 89:0.565727 90:0.528978 91:0.523706 92:0.610949 93:0.520693 94:0.488769 95:0.551242 96:0.5314 97:0.321337 98:0.488454 99:0.199303 100:0.348461 101:0.586863 102:0.644623 103:0.682259 104:0.547685 105:0.529946 106:0.413 107:0.493192 108:0.598493 109:0.583467 110:0.55812 111:0.546724 112:0.59083 
0.0 0.0 0.0 0.0 0.0 1.0 0.0 0.0 0.0 0.0 0.0 0.0 0.4493579147037161 1.0 1.0 0.0 0.0 1.0 0.4951165380326277 0.0 1.0 0.0 0.0 0.315648907670587 0.0 0.0 0.0 0.0 0.0 1:0.278214 2:0.520395 3:0.27794 4:0.199164 5:0.1222 6:0.073014 7:0.223079 8:0.35769 9:0.54068 10:0.194492 11:0.981711 13:0.435157 14:0.186101 15:0.552242 16:0.365939 17:0.299814 18:0.083912 19:0.231111 20:0.426243 21:7.0E-6 23:0.45198 24:0.437874 25:0.249246 26:0.504908 27:0.14458 28:0.097543 29:0.072348 30:0.121402 31:0.706028 33:0.018034 34:0.126785 35:0.075616 36:0.141818 37:0.31948 38:0.147691 39:0.347436 40:0.401027 41:5.0E-6 43:0.258741 44:0.410111 45:0.283158 46:0.380061 47:0.120613 48:0.119235 49:0.94235 50:0.196928 51:0.639121 52:0.634458 53:0.196797 54:0.830349 55:0.424131 56:0.498657 57:0.557399 58:0.582698 59:0.507026 60:0.540579 61:0.488156 62:0.482171 63:0.461283 64:0.473656 65:0.111925 66:0.475005 67:0.732996 68:0.375554 69:0.560248 70:0.494156 71:0.648538 72:0.355164 73:0.546302 74:0.454845 75:0.528509 76:0.397216 77:0.679483 78:0.308365 79:0.531353 80:0.510672 81:0.32291 82:0.180541 83:0.342906 84:0.468192 85:0.445873 86:0.375507 87:0.681433 88:0.691945 89:0.614125 90:0.565215 91:0.567881 92:0.62918 93:0.574098 94:0.589307 95:0.588506 96:0.485786 97:0.227719 98:0.411799 99:0.199809 100:0.43069 101:0.573814 102:0.540572 103:0.613039 104:0.542938 105:0.524409 106:0.413081 107:0.476985 108:0.568725 109:0.616207 110:0.665576 111:0.612997 112:0.614244 
1.0 0.6762892975493904 1.0 1.0 1.0 1.0 0.5183521393875276 0.5704250033883931 0.07604584784093482 1.0 1.0 1.0 1.0 1.0 1.0 1.0 1.0 1.0 1.0 1.0 1.0 0.4888799591364257 0.6047614408869258 0.45328352181257275 1.0 0.498237568844703 1.0 1.0 1.0 1:0.161028 2:0.33655 3:0.217365 4:0.50642 5:0.108542 6:0.049161 7:0.18621 8:0.412626 9:0.348772 10:0.296895 11:0.983154 13:0.367822 14:0.281503 15:0.41153 16:0.435653 17:0.277825 18:0.324179 19:0.535767 20:0.642813 21:3.09E-4 23:0.453784 24:0.661156 25:0.590384 26:0.698319 27:0.241867 28:0.474124 29:0.047553 30:0.244632 31:0.7059 33:0.003618 34:0.25145 35:0.049531 36:0.214694 37:0.327278 38:0.130858 39:0.248317 40:0.472518 41:1.52E-4 43:0.188006 44:0.492284 45:0.197951 46:0.414689 47:0.165927 48:0.462797 49:0.906943 50:0.61078 51:0.66407 52:0.45582 53:0.286432 54:0.52431 55:0.221571 56:0.42903 57:0.633447 58:0.605212 59:0.518352 60:0.552061 61:0.46326 62:0.559463 63:0.352431 64:0.589339 65:0.078856 66:0.498774 67:0.701165 68:0.293553 69:0.618286 70:0.472005 71:0.569244 72:0.35081 73:0.516379 74:0.428691 75:0.58401 76:0.391578 77:0.656997 78:0.286112 79:0.499349 80:0.509397 81:0.411096 82:0.66789 83:0.639579 84:0.451826 85:0.855047 86:0.7705 87:0.615434 88:0.582744 89:0.593601 90:0.564196 91:0.504434 92:0.745936 93:0.626971 94:0.604902 95:0.618088 96:0.480882 97:0.26204 98:0.545799 99:0.243722 100:0.291274 101:0.480367 102:0.48557 103:0.670369 104:0.431212 105:0.488167 106:0.377825 107:0.430047 108:0.475852 109:0.532377 110:0.526936 111:0.541646 112:0.557023 
0.0 0.3983575077396709 0.0 0.33128991425419013 0.0 0.3304954988202971 0.0 0.0 0.0 0.0 1.0 0.0 0.0 0.6370400382347366 0.972289381428909 1.0 0.0 1.0 0.0 0.0 0.4222201449555407 0.0 0.0 0.0 0.0 0.0 0.0 1.0 1.0 1:0.285168 2:0.545494 3:0.333348 4:0.350531 5:0.108597 6:0.103281 7:0.228571 8:0.470566 9:0.569032 10:0.252125 11:0.981705 13:0.451496 14:0.240958 15:0.598442 16:0.401117 17:0.319988 18:0.156265 19:0.380254 20:0.542871 21:1.0E-5 23:0.595097 24:0.556847 25:0.411434 26:0.643241 27:0.254038 28:0.237494 29:0.101286 30:0.335607 31:0.706179 33:0.016961 34:0.34761 35:0.102943 36:0.288712 37:0.321661 38:0.144208 39:0.447214 40:0.388318 41:6.0E-6 43:0.296836 44:0.399448 45:0.377131 46:0.397045 47:0.186348 48:0.394047 49:0.914785 50:0.169381 51:0.653022 52:0.614898 53:0.230775 54:0.756365 55:0.525983 56:0.390683 57:0.683382 58:0.463281 59:0.653154 60:0.45832 61:0.413713 62:0.720011 63:0.130399 64:0.758997 65:0.113669 66:0.455724 67:0.73014 68:0.392322 69:0.523409 70:0.521263 71:0.634365 72:0.325732 73:0.601035 74:0.410794 75:0.509822 76:0.471679 77:0.589961 78:0.339814 79:0.588553 80:0.422411 81:0.443456 82:0.226097 83:0.436388 84:0.592324 85:0.600744 86:0.510227 87:0.674694 88:0.470731 89:0.467537 90:0.652009 91:0.663981 92:0.602294 93:0.404751 94:0.475405 95:0.611466 96:0.593144 97:0.327884 98:0.461794 99:0.203599 100:0.449233 101:0.639872 102:0.606007 103:0.600923 104:0.450463 105:0.605943 106:0.579713 107:0.623715 108:0.568883 109:0.525912 110:0.643081 111:0.703736 112:0.755766 
0.18660340938959347 0.0 0.0 0.6264828364107174 0.2399817964072442 1.0 0.0 0.9675126216341946 0.24340808354688404 0.0 1.0 0.08452175234904281 1.0 1.0 1.0 0.7794498743892129 0.0 1.0 1.0 0.3420268695938665 1.0 0.0 0.0 0.0 0.0 0.0 0.17994007011177013 0.0 0.02687038789231062 1:0.172365 2:0.485383 3:0.154154 4:0.400627 5:0.154996 6:0.181003 7:0.150946 8:0.525584 9:0.497552 10:0.245679 11:0.982411 13:0.295435 14:0.232334 15:0.519823 16:0.398878 17:0.297446 18:0.16802 19:0.467486 20:0.533529 21:1.3E-4 23:0.288875 24:0.55332 25:0.505553 26:0.608392 27:0.123233 28:0.315355 29:0.181567 30:0.229595 31:0.711359 33:0.04807 34:0.24283 35:0.186451 36:0.2885 37:0.325278 38:0.230784 39:0.508354 40:0.41685 41:3.9E-5 43:0.195737 44:0.428503 45:0.42471 46:0.404897 47:0.094342 48:0.340965 49:0.893039 50:0.304514 51:0.693747 52:0.610937 53:0.274874 54:0.723501 55:0.453691 56:0.37467 57:0.531448 58:0.508286 59:0.385715 60:0.598993 61:0.266193 62:0.632175 63:0.375803 64:0.484846 65:0.193359 66:0.419191 67:0.743765 68:0.407278 69:0.495896 70:0.52998 71:0.62929 72:0.339182 73:0.578277 74:0.428978 75:0.517329 76:0.434275 77:0.629037 78:0.35646 79:0.501671 80:0.526883 81:0.439021 82:0.494416 83:0.488507 84:0.521223 85:0.558942 86:0.414303 87:0.727994 88:0.677907 89:0.799509 90:0.667351 91:0.582175 92:0.558248 93:0.3869 94:0.535832 95:0.497889 96:0.33836 97:0.397918 98:0.308521 99:0.20192 100:0.362366 101:0.419488 102:0.359588 103:0.514361 104:0.499011 105:0.563749 106:0.4497 107:0.453429 108:0.448285 109:0.469833 110:0.539434 111:0.403548 112:0.385368 
1.0 0.9525294429593717 0.7953718847277556 1.0 1.0 1.0 0.5433692665879932 1.0 0.5379210015410814 1.0 1.0 0.11129927136012455 1.0 1.0 1.0 1.0 0.11248713270113227 1.0 1.0 0.49367944126664093 1.0 0.2593858602589328 1.0 0.0 1.0 0.03848702300175146 1.0 1.0 0.058005292145607644 1:0.13101 2:0.420443 3:0.231693 4:0.55264 5:0.112212 6:0.103834 7:0.126084 8:0.480559 9:0.444229 10:0.469971 11:0.982562 13:0.19244 14:0.457774 15:0.494442 16:0.609947 17:0.283517 18:0.2499 19:0.56231 20:0.67076 21:9.7E-5 23:0.403181 24:0.67784 25:0.584952 26:0.687569 27:0.180289 28:0.494542 29:0.101943 30:0.274148 31:0.709295 33:0.010455 34:0.271948 35:0.105036 36:0.260157 37:0.320805 38:0.164958 39:0.371674 40:0.529493 41:3.3E-5 43:0.135715 44:0.539173 45:0.346999 46:0.477169 47:0.105123 48:0.417012 49:0.859528 50:0.410633 51:0.635122 52:0.362596 53:0.374008 54:0.659235 55:0.297242 56:0.534391 57:0.268586 58:0.751562 59:0.459432 60:0.629271 61:0.534876 62:0.408328 63:0.713288 64:0.268339 65:0.157936 66:0.483692 67:0.768838 68:0.289151 69:0.561002 70:0.531271 71:0.497641 72:0.438031 73:0.429497 74:0.503607 75:0.524106 76:0.416517 77:0.665048 78:0.301079 79:0.596741 80:0.42881 81:0.447534 82:0.652184 83:0.623569 84:0.541954 85:0.69545 86:0.566488 87:0.641949 88:0.829706 89:0.701789 90:0.640674 91:0.543986 92:0.494881 93:0.523087 94:0.704407 95:0.685705 96:0.675926 97:0.346706 98:0.487951 99:0.296174 100:0.426406 101:0.499329 102:0.489817 103:0.663927 104:0.596129 105:0.656262 106:0.463414 107:0.398321 108:0.434768 109:0.48873 110:0.610981 111:0.630145 112:0.691018 
0.0 0.0 0.0 0.0 0.0 0.0 0.0 0.0 0.0 0.0 0.3246495137037192 0.0 0.0 0.0 0.0 0.0 0.0 0.0 0.0 0.0 0.0 0.0 0.0 0.0 0.0 0.0 0.0 0.0 0.0 1:0.343186 2:0.528728 3:0.362807 4:0.262983 5:0.177322 6:0.174748 7:0.333596 8:0.548669 9:0.546929 10:0.137114 11:0.981722 13:0.501153 14:0.124337 15:0.555429 16:0.316274 17:0.310413 18:0.065003 19:0.30523 20:0.229735 21:1.1E-5 23:0.470475 24:0.231411 25:0.325401 26:0.346038 27:0.228758 28:0.087761 29:0.174901 30:0.186812 31:0.709012 33:0.059412 34:0.183444 35:0.175269 36:0.275073 37:0.316722 38:0.156687 39:0.552508 40:0.188375 41:6.0E-6 43:0.299077 44:0.188855 45:0.45224 46:0.249181 47:0.210924 48:0.105364 49:0.935021 50:0.241208 51:0.625991 52:0.570731 53:0.310499 54:0.718266 55:0.455247 56:0.539269 57:0.513029 58:0.571755 59:0.560049 60:0.519592 61:0.433726 62:0.559566 63:0.430866 64:0.420234 65:0.116391 66:0.492748 67:0.700111 68:0.369567 69:0.616063 70:0.468858 71:0.596354 72:0.439116 73:0.524079 74:0.380722 75:0.601358 76:0.379304 77:0.637884 78:0.36103 79:0.5172 80:0.504058 81:0.437937 82:0.188103 83:0.423858 84:0.465429 85:0.492731 86:0.5072 87:0.622852 88:0.611734 89:0.639467 90:0.601757 91:0.579981 92:0.612646 93:0.499348 94:0.491789 95:0.635651 96:0.604489 97:0.367581 98:0.237938 99:0.14607 100:0.298839 101:0.36721 102:0.413968 103:0.474272 104:0.467165 105:0.510734 106:0.416516 107:0.466256 108:0.508454 109:0.523879 110:0.548902 111:0.605718 112:0.633445 
0.0 0.0 0.0 0.0 0.0 0.0 0.0 0.0 0.06005782687132993 0.0 0.0 0.0 0.0 0.0 0.0 0.0 0.0 0.0 0.0 0.0 0.0 0.0 0.0 0.0 0.0 0.0 0.0 0.0 0.0 1:0.341934 2:0.492058 3:0.309686 4:0.226847 5:0.20729 6:0.241632 7:0.272446 8:0.57978 9:0.513632 10:0.152639 11:0.98175 13:0.488233 14:0.140113 15:0.523848 16:0.323698 17:0.289054 18:0.070638 19:0.265766 20:0.28754 21:9.0E-6 23:0.460855 24:0.294365 25:0.284543 26:0.414836 27:0.185903 28:0.083453 29:0.242192 30:0.263299 31:0.711069 33:0.112152 34:0.255806 35:0.240898 36:0.385375 37:0.310032 38:0.166305 39:0.571387 40:0.265869 41:8.0E-6 43:0.305776 44:0.268349 45:0.46066 46:0.346331 47:0.162044 48:0.093241 49:0.888746 50:0.246578 51:0.590875 52:0.654559 53:0.24588 54:0.723181 55:0.526509 56:0.450617 57:0.565333 58:0.56921 59:0.568742 60:0.45984 61:0.50869 62:0.565613 63:0.325262 64:0.559481 65:0.336209 66:0.365258 67:0.630577 68:0.598185 69:0.405441 70:0.519183 71:0.650221 72:0.399906 73:0.45402 74:0.506141 75:0.581661 76:0.289195 77:0.718496 78:0.397544 79:0.425647 80:0.509527 81:0.52497 82:0.179243 83:0.383878 84:0.465183 85:0.445098 86:0.508367 87:0.720594 88:0.565806 89:0.587617 90:0.577262 91:0.445093 92:0.553905 93:0.589213 94:0.556589 95:0.522194 96:0.394315 97:0.497105 98:0.290314 99:0.143727 100:0.355212 101:0.441088 102:0.46942 103:0.546123 104:0.450153 105:0.523601 106:0.400326 107:0.391627 108:0.528991 109:0.581415 110:0.549743 111:0.528848 112:0.54778 
0.0 0.0 0.012895704704885956 0.14464644101559213 0.0 1.0 0.11957342169185689 0.2824930864865139 0.04675607798381192 0.0 0.0 0.7221877297191719 0.0 1.0 1.0 0.952648248433878 0.5414233066013423 1.0 0.0 0.6102095330627842 0.13211657541096958 0.0 0.0 0.9445389657561887 0.0 0.0 0.6653634725952181 1.0 0.7713092463184509 1:0.149679 2:0.268624 3:0.244666 4:0.497588 5:0.121772 6:0.040752 7:0.189038 8:0.461412 9:0.277871 10:0.321015 11:0.982828 13:0.233852 14:0.310592 15:0.330171 16:0.488597 17:0.259306 18:0.304726 19:0.521053 20:0.513792 21:7.38E-4 23:0.350261 24:0.525675 25:0.626513 26:0.600343 27:0.112996 28:0.520968 29:0.040988 30:0.132059 31:0.711113 33:0.015554 34:0.131535 35:0.048339 36:0.137708 37:0.319466 38:0.17377 39:0.333241 40:0.425811 41:5.38E-4 43:0.191274 44:0.443525 45:0.354974 46:0.408742 47:0.08249 48:0.623867 49:0.909244 50:0.650193 51:0.580877 52:0.449247 53:0.204695 54:0.463582 55:0.693402 56:0.390396 57:0.525278 58:0.60121 59:0.307255 60:0.38558 61:0.494887 62:0.554476 63:0.474435 64:0.489434 65:0.099262 66:0.543896 67:0.727144 68:0.335063 69:0.567611 70:0.47475 71:0.657166 72:0.379283 73:0.529301 74:0.454825 75:0.525441 76:0.381028 77:0.663071 78:0.330547 79:0.513897 80:0.499876 81:0.423293 82:0.611689 83:0.55362 84:0.783822 85:0.773863 86:0.514923 87:0.874825 88:0.751701 89:0.671038 90:0.713495 91:0.526955 92:0.562279 93:0.504379 94:0.546175 95:0.492478 96:0.530564 97:0.384384 98:0.463035 99:0.242528 100:0.543955 101:0.679135 102:0.409619 103:0.675528 104:0.573323 105:0.553835 106:0.452069 107:0.481281 108:0.533881 109:0.554883 110:0.563759 111:0.536006 112:0.589062 
1.0 1.0 1.0 0.0 0.0 1.0 1.0 1.0 1.0 1.0 0.0 0.12273378632206551 1.0 1.0 1.0 1.0 0.0 1.0 0.6797570815454599 1.0 0.0 1.0 0.5193263146992679 1.0 1.0 0.21240079513162813 1.0 1.0 1.0 1:0.290512 2:0.400922 3:0.283043 4:0.248279 5:0.100721 6:0.070236 7:0.223684 8:0.289717 9:0.43556 10:0.179777 11:0.982151 13:0.410032 14:0.167398 15:0.481189 16:0.319803 17:0.245331 18:0.257764 19:0.26772 20:0.498791 21:6.3E-5 23:0.424868 24:0.50513 25:0.312913 26:0.568432 27:0.148974 28:0.339347 29:0.070862 30:0.19379 31:0.710315 33:0.030413 34:0.198526 35:0.076871 36:0.204929 37:0.313049 38:0.170673 39:0.263312 40:0.393491 41:3.2E-5 43:0.234767 44:0.399473 45:0.210903 46:0.377977 47:0.138962 48:0.326887 49:0.903005 50:0.387407 51:0.530823 52:0.807163 53:0.227823 54:0.645359 55:0.571912 56:0.380887 57:0.543846 58:0.569535 59:0.525601 60:0.480432 61:0.48554 62:0.56136 63:0.333398 64:0.524828 65:0.107578 66:0.516817 67:0.694038 68:0.361798 69:0.614877 70:0.478339 71:0.632866 72:0.388671 73:0.512421 74:0.475646 75:0.550856 76:0.373137 77:0.658416 78:0.353742 79:0.502384 80:0.504326 81:0.458381 82:0.369632 83:0.734356 84:0.565879 85:0.709618 86:0.625954 87:0.782306 88:0.543534 89:0.537835 90:0.570245 91:0.501188 92:0.518533 93:0.547452 94:0.581695 95:0.576505 96:0.486089 97:0.372078 98:0.354728 99:0.359389 100:0.611435 101:0.694409 102:0.632273 103:0.676581 104:0.52789 105:0.560451 106:0.461863 107:0.533139 108:0.574262 109:0.636462 110:0.72425 111:0.634078 112:0.657633 
0.0 0.0 0.0 0.487735700450046 1.0 1.0 1.0 1.0 1.0 1.0 1.0 1.0 1.0 1.0 1.0 1.0 1.0 1.0 1.0 1.0 0.0 1.0 1.0 1.0 1.0 1.0 1.0 0.3068192043606381 1.0 1:0.098916 2:0.314862 3:0.164578 4:0.437073 5:0.109796 6:0.067886 7:0.125215 8:0.35375 9:0.318721 10:0.355844 11:0.982808 13:0.247015 14:0.336727 15:0.367983 16:0.506006 17:0.260382 18:0.27374 19:0.456485 20:0.600112 21:8.2E-5 23:0.3389 24:0.611858 25:0.523397 26:0.655191 27:0.162179 28:0.431091 29:0.064029 30:0.25048 31:0.710357 33:0.013639 34:0.247665 35:0.069623 36:0.245881 37:0.320576 38:0.168314 39:0.25542 40:0.497785 41:3.3E-5 43:0.14551 44:0.528292 45:0.239918 46:0.460963 47:0.103993 48:0.341047 49:0.822502 50:0.57606 51:0.461374 52:0.353367 53:0.307772 54:0.483948 55:0.410001 56:0.554928 57:0.61875 58:0.525309 59:0.563615 60:0.575883 61:0.365979 62:0.612736 63:0.372487 64:0.579764 65:0.106889 66:0.540337 67:0.714932 68:0.324265 69:0.596317 70:0.4525 71:0.591291 72:0.424471 73:0.509417 74:0.446982 75:0.549465 76:0.405539 77:0.647236 78:0.376442 79:0.495541 80:0.487347 81:0.475513 82:0.564522 83:0.64036 84:0.682511 85:0.999848 86:0.674188 87:0.74902 88:0.667495 89:0.740628 90:0.700454 91:0.614061 92:0.6594 93:0.579665 94:0.577954 95:0.6455 96:0.541963 97:0.431546 98:0.395693 99:0.3289 100:0.457963 101:0.697036 102:0.476913 103:0.646269 104:0.498553 105:0.558147 106:0.451032 107:0.462673 108:0.530761 109:0.54312 110:0.549763 111:0.559854 112:0.53035 
1.0 1.0 1.0 0.0 1.0 1.0 1.0 0.6814315079420289 1.0 1.0 1.0 1.0 0.9853348019238427 1.0 1.0 1.0 0.1676803859856537 1.0 0.0 1.0 0.6769598270984383 1.0 1.0 1.0 1.0 1.0 1.0 1.0 1.0 1:0.288079 2:0.395548 3:0.286037 4:0.316621 5:0.124509 6:0.044701 7:0.288591 8:0.315867 9:0.421954 10:0.149985 11:0.981946 13:0.433761 14:0.136815 15:0.450306 16:0.311427 17:0.248091 18:0.153038 19:0.344441 20:0.386039 21:1.8E-5 23:0.458392 24:0.385837 25:0.38282 26:0.440289 27:0.157307 28:0.238697 29:0.044356 30:0.042979 31:0.705398 33:0.007254 34:0.044602 35:0.048716 36:0.062736 37:0.318577 38:0.14704 39:0.268811 40:0.351207 41:8.0E-6 43:0.308882 44:0.353049 45:0.243636 46:0.337826 47:0.108803 48:0.307937 49:0.948589 50:0.307319 51:0.394065 52:0.752926 53:0.437984 54:0.508442 55:0.480746 56:0.586259 57:0.552173 58:0.512113 59:0.556545 60:0.550802 61:0.469211 62:0.492636 63:0.448553 64:0.489884 65:0.097246 66:0.494612 67:0.731718 68:0.344626 69:0.608552 70:0.469913 71:0.632228 72:0.406403 73:0.509363 74:0.436341 75:0.580239 76:0.360465 77:0.665425 78:0.356456 79:0.509257 80:0.497054 81:0.245594 82:0.308156 83:0.648883 84:0.422909 85:0.766989 86:0.677473 87:0.661741 88:0.634526 89:0.521641 90:0.513024 91:0.507456 92:0.670105 93:0.609001 94:0.558106 95:0.475286 96:0.457138 97:0.22178 98:0.284158 99:0.406499 100:0.504021 101:0.479548 102:0.559445 103:0.641203 104:0.626001 105:0.524493 106:0.43584 107:0.474206 108:0.667451 109:0.703396 110:0.538898 111:0.592821 112:0.569346 
0.33577898120350885 0.8227417478696899 1.0 0.0 0.5262145691630868 0.0843953322378089 0.7763308116636649 0.0 1.0 1.0 0.0 1.0 0.0 1.0 0.9589066163713624 1.0 1.0 1.0 0.0 1.0 0.0 0.0 1.0 0.0 1.0 0.32828003358679747 1.0 1.0 0.0 1:0.047611 2:0.317691 3:0.043709 4:0.403667 5:0.101966 6:0.021231 7:0.046971 8:0.457454 9:0.336339 10:0.281821 11:0.982608 13:0.335479 14:0.256869 15:0.438432 16:0.459966 17:0.240943 18:0.454445 19:0.321823 20:0.4612 21:7.1E-5 23:0.262723 24:0.463692 25:0.392038 26:0.492807 27:0.123199 28:0.412285 29:0.020043 30:0.055038 31:0.705157 33:0.005286 34:0.057036 35:0.023625 36:0.050233 37:0.328078 38:0.131814 39:0.197467 40:0.336281 41:2.8E-5 43:0.157377 44:0.342506 45:0.21143 46:0.293867 47:0.093014 48:0.415202 49:0.883624 50:0.509558 51:0.399802 52:0.599387 53:0.134642 54:0.374834 55:0.702182 56:0.656025 57:0.355535 58:0.76336 59:0.442695 60:0.253423 61:0.677638 62:0.399563 63:0.5181 64:0.498702 65:0.074357 66:0.474457 67:0.76765 68:0.322678 69:0.602652 70:0.489309 71:0.639202 72:0.409291 73:0.539783 74:0.458784 75:0.575347 76:0.344882 77:0.678121 78:0.357711 79:0.508162 80:0.542287 81:0.197462 82:0.503165 83:0.550985 84:0.734591 85:0.725686 86:0.626252 87:0.868189 88:1.0 89:0.85662 90:0.70041 91:0.740404 92:0.760115 93:0.71611 94:0.738133 95:0.921575 96:0.656125 97:0.192025 98:0.394189 99:0.322693 100:0.5991 101:0.694241 102:0.537795 103:0.682803 104:0.737273 105:0.764848 106:0.519438 107:0.564837 108:0.635331 109:0.671554 110:0.721129 111:0.750127 112:0.734504 
0.0 0.23907530212630856 0.016439552303060143 0.0 0.0 0.5259077082610688 0.0 0.5167260979365071 0.0 0.0 0.0 0.0 0.08065726793177273 0.8582983877772673 0.0 0.0 0.0 0.12398064026535444 0.4140384852129365 0.0 0.0 0.0 0.0 0.19993405172330336 0.0 0.0 0.0 0.0 0.0 1:0.244783 2:0.517319 3:0.234732 4:0.170568 5:0.215315 6:0.237436 7:0.218341 8:0.499602 9:0.535111 10:0.223846 11:0.981712 13:0.340083 14:0.212319 15:0.546854 16:0.385374 17:0.28921 18:0.079851 19:0.191157 20:0.488411 21:6.0E-6 23:0.375641 24:0.505776 25:0.203089 26:0.565569 27:0.09589 28:0.100448 29:0.238435 30:0.356382 31:0.709774 33:0.041702 34:0.356676 35:0.238562 36:0.415342 37:0.31561 38:0.175112 39:0.489868 40:0.48492 41:9.0E-6 43:0.21446 44:0.49874 45:0.393015 46:0.476896 47:0.081879 48:0.090575 49:0.869651 50:0.199656 51:0.625385 52:0.65532 53:0.164046 54:0.872003 55:0.399505 56:0.484379 57:0.62213 58:0.500786 59:0.610861 60:0.470463 61:0.494464 62:0.542189 63:0.367711 64:0.545395 65:0.16806 66:0.400214 67:0.718486 68:0.459632 69:0.439187 70:0.573032 71:0.589108 72:0.333523 73:0.605392 74:0.399409 75:0.526162 76:0.440376 77:0.623216 78:0.335009 79:0.539463 80:0.506113 81:0.715167 82:0.181631 83:0.279943 84:0.374805 85:0.396495 86:0.359717 87:0.635516 88:0.642222 89:0.596739 90:0.59548 91:0.596341 92:0.642581 93:0.577462 94:0.584383 95:0.59649 96:0.524556 97:0.949392 98:0.48191 99:0.175897 100:0.433365 101:0.676587 102:0.683225 103:0.729136 104:0.594598 105:0.610244 106:0.497908 107:0.551291 108:0.595774 109:0.631881 110:0.641473 111:0.565412 112:0.565719 
0.30903980737469694 0.9122913277568329 0.0 0.0 0.0 0.02121938966753337 0.48584557195247097 0.25245486322696215 1.0 0.24924301905399066 0.0 0.0 1.0 0.0 1.0 0.3710853616709737 0.0 1.0 1.0 0.1749801405714247 0.0 0.0 0.0 1.0 0.0 0.5568519462203139 0.0 0.48687743622044294 0.8100245392689569 1:0.274497 2:0.453628 3:0.190283 4:0.216014 5:0.134523 6:0.16775 7:0.150325 8:0.464541 9:0.474054 10:0.17902 11:0.981803 13:0.445244 14:0.165579 15:0.486821 16:0.33996 17:0.265023 18:0.078441 19:0.242605 20:0.436534 21:1.0E-5 23:0.360606 24:0.432291 25:0.245047 26:0.500637 27:0.132565 28:0.06109 29:0.167401 30:0.365642 31:0.709362 33:0.05378 34:0.360576 35:0.168738 36:0.396996 37:0.316928 38:0.169246 39:0.453874 40:0.40273 41:9.0E-6 43:0.239602 44:0.400007 45:0.36392 46:0.409571 47:0.073876 48:0.08413 49:0.927716 50:0.268247 51:0.530405 52:0.742535 53:0.230489 54:0.674546 55:0.581183 56:0.437656 57:0.561877 58:0.55828 59:0.591122 60:0.474712 61:0.447475 62:0.600597 63:0.375165 64:0.448057 65:0.20496 66:0.423763 67:0.679022 68:0.506434 69:0.449726 70:0.542421 71:0.638652 72:0.301576 73:0.644417 74:0.358434 75:0.532048 76:0.481066 77:0.548333 78:0.400262 79:0.53051 80:0.457335 81:0.465691 82:0.157753 83:0.42312 84:0.445712 85:0.430574 86:0.607277 87:0.753566 88:0.554989 89:0.601081 90:0.551555 91:0.447567 92:0.475326 93:0.474784 94:0.49641 95:0.464525 96:0.374163 97:0.368961 98:0.194777 99:0.156988 100:0.365394 101:0.342813 102:0.385299 103:0.459662 104:0.371492 105:0.432434 106:0.338002 107:0.366448 108:0.373082 109:0.415296 110:0.487167 111:0.424939 112:0.452978 
1.0 0.3989091120959034 0.6777123429813636 1.0 0.0 1.0 1.0 1.0 1.0 1.0 1.0 1.0 0.5292585929284607 1.0 1.0 1.0 1.0 1.0 1.0 1.0 1.0 1.0 0.7838488135768138 1.0 1.0 1.0 1.0 1.0 1.0 1:0.186894 2:0.381245 3:0.243473 4:0.520832 5:0.120572 6:0.095459 7:0.181263 8:0.42749 9:0.394647 10:0.265629 11:0.985404 13:0.299711 14:0.250773 15:0.413947 16:0.434768 17:0.282122 18:0.117882 19:0.575728 20:0.488704 21:5.03E-4 23:0.383624 24:0.504101 25:0.599676 26:0.561162 27:0.207517 28:0.291201 29:0.094605 30:0.176234 31:0.71337 33:0.017736 34:0.178631 35:0.097855 36:0.211217 37:0.318707 38:0.155212 39:0.373746 40:0.444673 41:1.62E-4 43:0.189802 44:0.456363 45:0.311797 46:0.415468 47:0.128269 48:0.346615 49:0.894313 50:0.427657 51:0.598586 52:0.705415 53:0.428347 54:0.576408 55:0.638579 56:0.490957 57:0.489027 58:0.603055 59:0.547346 60:0.472336 61:0.491659 62:0.522416 63:0.410105 64:0.454126 65:0.145635 66:0.499002 67:0.716185 68:0.386925 69:0.607883 70:0.464795 71:0.662144 72:0.393282 73:0.524658 74:0.442906 75:0.570084 76:0.36331 77:0.693933 78:0.316158 79:0.520517 80:0.498229 81:0.356363 82:0.619986 83:0.581575 84:0.525967 85:0.669466 86:0.636539 87:0.750996 88:0.637707 89:0.641635 90:0.514475 91:0.43552 92:0.568238 93:0.464558 94:0.536408 95:0.556181 96:0.465796 97:0.289057 98:0.434711 99:0.258723 100:0.493195 101:0.336874 102:0.409897 103:0.483789 104:0.43781 105:0.52621 106:0.338542 107:0.339353 108:0.479533 109:0.450242 110:0.518714 111:0.476269 112:0.495318 
0.6277631850997029 0.6710818106443865 1.0 0.0 0.5786043357783579 0.0 0.4022313597263863 0.5782577625648364 0.656903880679685 0.7408983199682427 0.6186516408761428 0.9022775161551654 0.0 1.0 0.8057350369875815 1.0 0.7031280221046411 1.0 0.5656431660979199 1.0 0.960495826452929 0.9058736180948644 0.9539000864794861 1.0 1.0 0.8620421898759989 1.0 0.21337199326471232 0.09377050213313665 1:0.064923 2:0.226111 3:0.100096 4:0.391208 5:0.109393 6:0.047874 7:0.109697 8:0.370853 9:0.231313 10:0.434998 11:0.983082 13:0.305895 14:0.409446 15:0.279744 16:0.579027 17:0.235013 18:0.244156 19:0.375266 20:0.638072 21:5.4E-5 23:0.355051 24:0.647142 25:0.472243 26:0.661355 27:0.159993 28:0.424411 29:0.04743 30:0.228584 31:0.710029 33:0.025943 34:0.229397 35:0.051112 36:0.2141 37:0.316951 38:0.150672 39:0.266721 40:0.478224 41:2.5E-5 43:0.235421 44:0.496006 45:0.273091 46:0.434999 47:0.144534 48:0.450435 49:0.816958 50:0.688893 51:0.39267 52:0.115221 53:0.147656 54:0.554762 55:0.848941 56:0.665671 57:0.529548 58:0.585856 59:0.372812 60:0.440393 61:0.491605 62:0.53437 63:0.421914 64:0.488504 65:0.143685 66:0.571072 67:0.71902 68:0.243425 69:0.542721 70:0.516021 71:0.604057 72:0.417906 73:0.553209 74:0.405724 75:0.566333 76:0.385061 77:0.702116 78:0.279024 79:0.523439 80:0.527991 81:0.341826 82:0.483391 83:0.406105 84:0.646277 85:0.651263 86:0.522548 87:0.724995 88:0.586234 89:0.680877 90:0.636768 91:0.524738 92:0.600654 93:0.533181 94:0.753118 95:0.70774 96:0.592782 97:0.285201 98:0.400576 99:0.315033 100:0.565492 101:0.765684 102:0.410468 103:0.686093 104:0.53906 105:0.579358 106:0.43348 107:0.460062 108:0.501377 109:0.572446 110:0.630213 111:0.620363 112:0.631253 
0.0 0.6116335549503867 0.0 0.0 0.19926709903832782 1.0 0.0 0.0 0.0 0.0 0.0 0.12562492301102696 1.0 1.0 1.0 0.0 0.19833823359498817 1.0 1.0 0.0 0.13311882312528556 0.0 0.0 1.0 0.0 0.0 0.0 1.0 0.0 1:0.19585 2:0.486127 3:0.172007 4:0.132308 5:0.111242 6:0.119012 7:0.165785 8:0.363179 9:0.516321 10:0.160801 11:0.981729 13:0.414984 14:0.143842 15:0.545839 16:0.315186 17:0.282361 18:0.140514 19:0.135282 20:0.407241 21:5.0E-6 23:0.331133 24:0.400717 25:0.156685 26:0.471265 27:0.084741 28:0.137642 29:0.120972 30:0.271448 31:0.706893 33:0.029774 34:0.26403 35:0.125456 36:0.267653 37:0.320659 38:0.18082 39:0.351206 40:0.249633 41:7.0E-6 43:0.224634 44:0.245649 45:0.285678 46:0.243272 47:0.06557 48:0.107261 49:0.942041 50:0.194003 51:0.606964 52:0.738607 53:0.088622 54:0.918753 55:0.412657 56:0.438343 57:0.671163 58:0.477712 59:0.61864 60:0.469119 61:0.503908 62:0.523466 63:0.400221 64:0.502198 65:0.117805 66:0.456833 67:0.751388 68:0.366337 69:0.536358 70:0.535001 71:0.586007 72:0.378199 73:0.573373 74:0.389207 75:0.573408 76:0.388864 77:0.655983 78:0.331189 79:0.536892 80:0.500359 81:0.295178 82:0.132843 83:0.230884 84:0.331621 85:0.321906 86:0.30243 87:0.538248 88:0.505325 89:0.471433 90:0.487093 91:0.475565 92:0.547599 93:0.540338 94:0.573567 95:0.60415 96:0.476671 97:0.210503 98:0.299389 99:0.108901 100:0.393459 101:0.556599 102:0.51914 103:0.493759 104:0.434186 105:0.50075 106:0.424777 107:0.441217 108:0.484954 109:0.522929 110:0.55995 111:0.537643 112:0.496645 
0.0 0.0 0.0 0.8617686026543581 0.0 1.0 0.0 0.0 0.47478129555069165 0.0 1.0 0.0 0.0 1.0 0.7708298824799732 0.0 0.0 1.0 1.0 0.0 1.0 0.0 0.0 0.0 0.0 0.0 0.054784516726437964 0.15869833044472603 0.0 1:0.207753 2:0.598319 3:0.18415 4:0.340643 5:0.116128 6:0.145625 7:0.157063 8:0.490593 9:0.613521 10:0.246683 11:0.981773 13:0.296946 14:0.237794 15:0.62928 16:0.405842 17:0.301702 18:0.110035 19:0.360154 20:0.526859 21:7.4E-5 23:0.329148 24:0.545339 25:0.345846 26:0.604412 27:0.096816 28:0.173549 29:0.14332 30:0.265404 31:0.706658 33:0.018387 34:0.267988 35:0.144978 36:0.273178 37:0.322663 38:0.161066 39:0.465862 40:0.45093 41:4.3E-5 43:0.177257 44:0.474852 45:0.368589 46:0.428861 47:0.068971 48:0.156962 49:0.907424 50:0.178584 51:0.719701 52:0.48892 53:0.335844 54:0.750029 55:0.455205 56:0.517615 57:0.536456 58:0.598705 59:0.485164 60:0.585327 61:0.385287 62:0.600373 63:0.327054 64:0.551861 65:0.128942 66:0.437032 67:0.754392 68:0.346969 69:0.570673 70:0.488385 71:0.647796 72:0.352539 73:0.540816 74:0.472884 75:0.486998 76:0.441481 77:0.653659 78:0.286701 79:0.577009 80:0.480292 81:0.382803 82:0.22121 83:0.381324 84:0.648438 85:0.753801 86:0.603089 87:0.744332 88:0.697299 89:0.664568 90:0.574156 91:0.506108 92:0.538942 93:0.498349 94:0.564921 95:0.62697 96:0.586892 97:0.332604 98:0.455317 99:0.24394 100:0.454422 101:0.591605 102:0.625373 103:0.693538 104:0.604281 105:0.611714 106:0.431438 107:0.440829 108:0.510774 109:0.559425 110:0.605382 111:0.610555 112:0.695981 
0.22687472849013915 0.0 0.2150858222583199 0.7209730659527168 0.0 0.7155535227337916 0.0 1.0 0.0 0.45956887820025316 0.928679928986551 0.0 0.0 1.0 0.0 0.41799531944613527 0.0 0.0 0.5719741974356243 0.0 0.0 0.4872447594201086 0.0 0.0 0.0 0.0 0.0 0.0 0.0 1:0.263232 2:0.650544 3:0.34324 4:0.445219 5:0.180297 6:0.558079 7:0.426987 8:0.854523 9:0.682404 10:0.28216 11:0.981624 13:0.403591 14:0.273651 15:0.748844 16:0.4138 17:0.333233 18:0.328957 19:0.409025 20:0.622625 21:9.0E-6 23:0.555974 24:0.635813 25:0.422461 26:0.721135 27:0.188637 28:0.461817 29:0.557334 30:0.71499 31:0.710785 33:0.145652 34:0.711509 35:0.55522 36:0.803398 37:0.345388 38:0.239691 39:0.770696 40:0.531448 41:1.1E-5 43:0.568485 44:0.555254 45:0.724967 46:0.524336 47:0.224663 48:0.734709 49:0.802308 50:0.165608 51:0.65382 52:0.446544 53:0.530627 54:0.46401 55:0.545405 56:0.572127 57:0.520521 58:0.451301 59:0.763671 60:0.35527 61:0.553204 62:0.472324 63:0.477697 64:0.437227 65:0.297167 66:0.195071 67:0.816704 68:0.352815 69:0.435603 70:0.640115 71:0.359418 72:0.566468 73:0.450533 74:0.380321 75:0.687314 76:0.184928 77:0.886663 78:0.125182 79:0.612799 80:0.529658 81:0.520361 82:0.268995 83:0.360623 84:0.539694 85:0.579847 86:0.478503 87:0.678679 88:0.831399 89:0.648439 90:0.424397 91:0.493433 92:0.567161 93:0.531063 94:0.480109 95:0.503183 96:0.519646 97:0.560153 98:0.502799 99:0.212362 100:0.415933 101:0.34636 102:0.430302 103:0.609797 104:0.777353 105:0.630912 106:0.466469 107:0.605958 108:0.572719 109:0.626902 110:0.597154 111:0.524641 112:0.686721 
0.0 0.0 0.0 0.0 0.0 0.0 0.0 0.0 0.0 0.0 0.0 0.0 0.0 0.0 0.0 0.0 0.0 0.9338266926967278 0.29856998761786896 0.0 0.0 0.0 0.0 0.0 0.0 0.0 0.0 0.0 0.0 1:0.283094 2:0.429988 3:0.222993 4:0.401742 5:0.214822 6:0.226556 7:0.23086 8:0.507955 9:0.445381 10:0.157456 11:0.984375 13:0.380925 14:0.142758 15:0.455897 16:0.334679 17:0.260284 18:0.067003 19:0.444999 20:0.292841 21:8.89E-4 23:0.333643 24:0.293326 25:0.455452 26:0.392666 27:0.178226 28:0.142032 29:0.225942 30:0.208554 31:0.721802 33:0.091893 34:0.199897 35:0.228652 36:0.330436 37:0.317547 38:0.200123 39:0.501698 40:0.301743 41:6.62E-4 43:0.23022 44:0.296893 45:0.413622 46:0.382264 47:0.120927 48:0.149733 49:0.869058 50:0.322291 51:0.610585 52:0.658635 53:0.254315 54:0.770094 55:0.493764 56:0.448313 57:0.633874 58:0.517087 59:0.591567 60:0.493451 61:0.475258 62:0.57348 63:0.363492 64:0.51949 65:0.198368 66:0.415766 67:0.669765 68:0.534979 69:0.442076 70:0.53271 71:0.672108 72:0.316637 73:0.563066 74:0.474434 75:0.50414 76:0.416425 77:0.660921 78:0.321515 79:0.522967 80:0.516014 81:0.590609 82:0.517388 83:0.330175 84:0.368622 85:0.540763 86:0.440427 87:0.666458 88:0.593965 89:0.528808 90:0.55791 91:0.527392 92:0.57914 93:0.531904 94:0.507013 95:0.53503 96:0.472442 97:0.61217 98:0.433114 99:0.205111 100:0.430111 101:0.53233 102:0.540761 103:0.630265 104:0.5785 105:0.615297 106:0.501741 107:0.516102 108:0.571894 109:0.587353 110:0.558937 111:0.563812 112:0.614182 
0.7185086697567374 1.0 1.0 0.0 0.6068795659164544 0.0 1.0 1.0 1.0 1.0 0.0 0.9794674384887616 0.0 1.0 1.0 1.0 0.467409286214172 1.0 0.0 1.0 0.0 1.0 0.0 1.0 1.0 0.0 1.0 0.969975652862888 1.0 1:0.197608 2:0.472189 3:0.218666 4:0.322932 5:0.170692 6:0.178468 7:0.186873 8:0.498209 9:0.487135 10:0.277064 11:0.981864 13:0.283596 14:0.267836 15:0.498499 16:0.45046 17:0.297366 18:0.085037 19:0.373746 20:0.467582 21:3.4E-5 23:0.384054 24:0.492768 25:0.401015 26:0.567845 27:0.161847 28:0.147028 29:0.179708 30:0.261222 31:0.709206 33:0.042377 34:0.259593 35:0.181111 36:0.339875 37:0.322816 38:0.173425 39:0.484062 40:0.46325 41:1.5E-5 43:0.213618 44:0.486457 45:0.393947 46:0.48451 47:0.118227 48:0.213573 49:0.876609 50:0.274757 51:0.540527 52:0.692497 53:0.281918 54:0.591026 55:0.609117 56:0.423182 57:0.573435 58:0.559505 59:0.600883 60:0.50501 61:0.418317 62:0.613926 63:0.347813 64:0.46862 65:0.197032 66:0.435929 67:0.667929 68:0.502105 69:0.486249 70:0.494772 71:0.690912 72:0.313292 73:0.585167 74:0.425517 75:0.513691 76:0.478105 77:0.56615 78:0.347794 79:0.61984 80:0.394527 81:0.476162 82:0.295809 83:0.495936 84:0.558271 85:0.604206 86:0.684975 87:0.732185 88:0.614897 89:0.643671 90:0.580409 91:0.637604 92:0.759893 93:0.566914 94:0.454649 95:0.639474 96:0.681566 97:0.444007 98:0.317148 99:0.241769 100:0.522328 101:0.516141 102:0.499499 103:0.533251 104:0.509997 105:0.560384 106:0.413092 107:0.519641 108:0.607319 109:0.534317 110:0.495096 111:0.586329 112:0.674505 
0.0 0.0 0.0 0.0 0.0 1.0 0.0 0.0 0.0 0.0 0.0 0.9753141100016701 0.7078051485319311 0.48785380367067266 0.0 0.0 0.0 0.9525300987941412 0.0 0.0 0.0 0.0 0.5346424497724722 0.0 0.0 0.38034010867388535 0.0 0.0 0.0 1:0.276496 2:0.512394 3:0.2456 4:0.141545 5:0.156122 6:0.159404 7:0.218511 8:0.430735 9:0.526429 10:0.151882 11:0.981719 13:0.42965 14:0.136937 15:0.53196 16:0.338388 17:0.294096 18:0.05464 19:0.18064 20:0.210109 21:6.0E-6 23:0.392576 24:0.204015 25:0.199704 26:0.333626 27:0.095934 28:0.063097 29:0.158784 30:0.17949 31:0.708262 33:0.034471 34:0.173673 35:0.159306 36:0.261618 37:0.314503 38:0.153106 39:0.420669 40:0.164204 41:8.0E-6 43:0.230071 44:0.159236 45:0.337662 46:0.252202 47:0.072868 48:0.074143 49:0.946759 50:0.233029 51:0.613655 52:0.657364 53:0.178386 54:0.850053 55:0.437664 56:0.433888 57:0.678538 58:0.480454 59:0.568668 60:0.5838 61:0.353531 62:0.594655 63:0.454553 64:0.34142 65:0.105521 66:0.470301 67:0.736309 68:0.372037 69:0.551006 70:0.512704 71:0.621331 72:0.360922 73:0.565277 74:0.41975 75:0.539633 76:0.422404 77:0.628834 78:0.34211 79:0.548647 80:0.468677 81:0.383461 82:0.121742 83:0.249031 84:0.33132 85:0.301319 86:0.256373 87:0.562491 88:0.658244 89:0.616565 90:0.48126 91:0.500138 92:0.677173 93:0.607367 94:0.536071 95:0.579237 96:0.520373 97:0.322439 98:0.242021 99:0.121204 100:0.298165 101:0.428706 102:0.472972 103:0.534602 104:0.54507 105:0.589662 106:0.405969 107:0.428701 108:0.579973 109:0.629551 110:0.576081 111:0.538064 112:0.587271 
0.21897201930826887 0.29764039263116704 0.0 0.0 0.0 0.0 0.0 0.0 0.0 0.0 1.0 0.0 0.12273120521157789 1.0 0.7239954024072988 1.0 0.0 1.0 0.6462172261763117 0.0 0.0 0.0 0.3266249897200457 1.0 0.0 0.0 0.0 0.42790430937585544 0.0 1:0.202698 2:0.547782 3:0.222459 4:0.203572 5:0.122425 6:0.139918 7:0.192328 8:0.414061 9:0.566486 10:0.265466 11:0.981684 13:0.322867 14:0.251274 15:0.584002 16:0.414094 17:0.314205 18:0.104739 19:0.240627 20:0.612673 21:6.0E-6 23:0.4092 24:0.61889 25:0.260085 26:0.642027 27:0.20852 28:0.112437 29:0.137828 30:0.252637 31:0.707232 33:0.029667 34:0.247338 35:0.140199 36:0.274383 37:0.319443 38:0.170396 39:0.401139 40:0.530769 41:7.0E-6 43:0.227824 44:0.535407 45:0.324659 46:0.468376 47:0.15495 48:0.098563 49:0.879789 50:0.179598 51:0.662958 52:0.585547 53:0.214368 54:0.847805 55:0.385668 56:0.521173 57:0.567706 58:0.549176 59:0.554752 60:0.506876 61:0.506376 62:0.464266 63:0.504823 64:0.396107 65:0.142636 66:0.423274 67:0.717411 68:0.434565 69:0.467033 70:0.55479 71:0.60918 72:0.315599 73:0.648952 74:0.339088 75:0.546472 76:0.488903 77:0.493292 78:0.496333 79:0.456006 80:0.462859 81:0.423276 82:0.201351 83:0.347667 84:0.506454 85:0.550329 86:0.389618 87:0.627576 88:0.728838 89:0.714292 90:0.553514 91:0.450358 92:0.552542 93:0.593943 94:0.626417 95:0.62065 96:0.52164 97:0.36252 98:0.462319 99:0.213161 100:0.412587 101:0.593332 102:0.602059 103:0.650559 104:0.603978 105:0.623913 106:0.403471 107:0.394592 108:0.472157 109:0.59436 110:0.654048 111:0.607572 112:0.64181 
0.0 0.0 0.0 1.0 0.0 0.0 0.0 0.0 0.0 0.0 1.0 0.0 0.0 0.0 0.0 0.0 0.0 0.0 0.8557114622964027 0.0 0.0 0.0 0.0 0.0 0.0 0.0 0.0 0.0 0.31378702783371076 1:0.280055 2:0.501837 3:0.350401 4:0.5308 5:0.185748 6:0.253068 7:0.290739 8:0.677252 9:0.526716 10:0.22581 11:0.983462 13:0.367352 14:0.21127 15:0.553339 16:0.389613 17:0.341178 18:0.143434 19:0.59165 20:0.418983 21:3.69E-4 23:0.536625 24:0.424803 25:0.629692 26:0.546521 27:0.380204 28:0.38225 29:0.254463 30:0.336042 31:0.718895 33:0.067775 34:0.326703 35:0.25577 36:0.42089 37:0.324039 38:0.19666 39:0.64079 40:0.346344 41:1.26E-4 43:0.268104 44:0.356465 45:0.53179 46:0.403097 47:0.268334 48:0.325904 49:0.792246 50:0.304378 51:0.670202 52:0.445826 53:0.417703 54:0.692786 55:0.48305 56:0.532856 57:0.489907 58:0.59003 59:0.52933 60:0.486245 61:0.532918 62:0.477394 63:0.447182 64:0.452511 65:0.190537 66:0.363578 67:0.743001 68:0.419147 69:0.439789 70:0.613327 71:0.458557 72:0.476484 73:0.470584 74:0.467605 75:0.534162 76:0.369342 77:0.710931 78:0.25504 79:0.570647 80:0.479444 81:0.567216 82:0.577231 83:0.507632 84:0.609312 85:0.711937 86:0.506058 87:0.700986 88:0.649851 89:0.622528 90:0.520785 91:0.482051 92:0.573026 93:0.565152 94:0.594221 95:0.62333 96:0.485782 97:0.561255 98:0.476336 99:0.284239 100:0.501667 101:0.534793 102:0.525833 103:0.6633 104:0.583993 105:0.600956 106:0.435117 107:0.466896 108:0.53653 109:0.606492 110:0.629741 111:0.595147 112:0.597059 
0.11030771589994844 0.05786873409251265 0.5423925114031168 0.0 0.0 0.5203276612208805 0.0 0.8092998516114085 0.0 0.0 0.2265662683996387 0.0 0.0 0.6958831743387479 0.47040363404731705 0.42630860796022435 0.0 0.5951974120673943 0.11283391327067169 0.030503015348297382 0.7530435577212387 0.43790626065668176 0.0 0.0 0.0 0.0 0.0 0.5517966152664546 0.2224765060669898 1:0.628201 2:0.469496 3:0.46221 4:0.231144 5:0.626581 6:0.65389 7:0.80355 8:0.713592 9:0.591077 10:0.119693 11:0.981669 12:1.0E-6 13:0.900686 14:0.110968 15:0.671753 16:0.221962 17:0.390724 18:0.395867 19:0.100122 20:0.421742 21:2.0E-6 23:0.540954 24:0.425102 25:0.213213 26:0.551263 27:0.225807 28:0.33504 29:0.694124 30:0.542859 31:0.716544 33:1.0 34:0.522538 35:0.708844 36:0.772008 37:0.374933 38:0.520173 39:0.780644 40:0.363969 41:1.2E-5 43:0.818633 44:0.365338 45:0.756901 46:0.398868 47:0.345896 48:0.755713 49:0.794936 50:0.102853 51:0.646656 52:0.623888 53:0.312541 54:0.604953 55:0.553926 56:0.590192 57:0.315724 58:0.720599 59:0.523972 60:0.457951 61:0.426009 62:0.710472 63:0.212901 64:0.586562 65:0.554822 67:0.793763 68:0.655666 70:1.0 72:0.671171 73:0.57198 74:0.134302 75:0.845432 76:0.234424 77:0.540175 78:0.765302 80:0.906621 81:0.506175 82:0.318338 83:0.129761 84:0.245857 85:0.380498 86:0.402584 87:0.416087 88:0.319471 89:0.537477 90:0.563441 91:0.433348 92:0.36561 93:0.339116 94:0.434355 95:0.496692 96:0.392458 97:0.669326 98:0.732917 99:0.162558 100:0.426639 101:0.580146 102:0.608336 103:0.629504 104:0.544579 105:0.937646 106:0.735787 107:0.588224 108:0.517624 109:0.565461 110:0.682118 111:0.662462 112:0.635904 
0.0 0.0 0.0 0.0 0.0 0.0 0.0 0.0 0.0 0.0 1.0 0.0 0.0 0.0 0.048548863867688107 0.0 0.0 0.0 0.0 0.0 0.016621908558921795 1.0 0.0 0.0 0.0 0.0 0.0 0.30678440322708717 1.0 1:0.4196 2:0.497846 3:0.364763 4:0.259561 5:0.154484 6:0.145681 7:0.351112 8:0.550585 9:0.543863 10:0.149183 11:0.98173 13:0.574464 14:0.137613 15:0.569608 16:0.291655 17:0.352049 18:0.134363 19:0.337798 20:0.376232 21:1.1E-5 23:0.508867 24:0.378437 25:0.384128 26:0.50978 27:0.359488 28:0.15099 29:0.145549 30:0.268787 31:0.709075 33:0.064645 34:0.266851 35:0.146977 36:0.31878 37:0.313137 38:0.162028 39:0.565985 40:0.295769 41:6.0E-6 43:0.402822 44:0.296731 45:0.471755 46:0.319202 47:0.288123 48:0.197346 49:0.904153 50:0.183285 51:0.647295 52:0.59793 53:0.272084 54:0.71072 55:0.524263 56:0.483284 57:0.482774 58:0.67031 59:0.441688 60:0.541178 61:0.489797 62:0.564441 63:0.281969 64:0.656063 65:0.107794 66:0.478211 67:0.728967 68:0.373019 69:0.566894 70:0.486419 71:0.655486 72:0.357332 73:0.53427 74:0.471884 75:0.519979 76:0.392617 77:0.694821 78:0.291603 79:0.537217 80:0.520526 81:0.409764 82:0.250966 83:0.486554 84:0.585821 85:0.536627 86:0.514197 87:0.76068 88:0.581304 89:0.495572 90:0.563921 91:0.45363 92:0.417397 93:0.513252 94:0.502893 95:0.448608 96:0.412612 97:0.313031 98:0.460905 99:0.302581 100:0.551178 101:0.565313 102:0.556435 103:0.662831 104:0.529051 105:0.520064 106:0.480314 107:0.48071 108:0.53462 109:0.657372 110:0.644616 111:0.582401 112:0.65869 
-0.8653048457800324 1.0 0.6331721657828392 0.06795919620873457 1.0 1.0 1.0 1.0 1.0 1.0 1.0 1.0 1.0 1.0 1.0 1.0 0.9021118169861517 1.0 1.0 1.0 1.0 1.0 1.0 1.0 1.0 1.0 1.0 1.0 1.0 1:0.151232 2:0.359173 3:0.288228 4:0.379222 5:0.111693 6:0.086105 7:0.249973 8:0.245479 9:0.37311 10:0.524862 11:0.98213 13:0.20821 14:0.51317 15:0.391843 16:0.62879 17:0.257336 18:0.113891 19:0.417735 20:0.78577 21:2.8E-5 23:0.417661 24:0.803456 25:0.459801 26:0.814101 27:0.176609 28:0.237832 29:0.084459 30:0.285833 31:0.707706 33:0.010955 34:0.287338 35:0.08695 36:0.272031 37:0.32018 38:0.14682 39:0.238033 40:0.63007 41:1.3E-5 43:0.284279 44:0.645239 45:0.215476 46:0.509139 47:0.126046 48:0.245017 49:0.819049 50:0.384563 51:0.360503 52:0.581055 53:0.533888 54:0.576792 55:0.515789 56:0.378206 57:0.589255 58:0.728235 59:0.425076 60:0.327547 61:0.638718 62:0.688109 63:0.203471 64:0.493718 65:0.128059 66:0.475695 67:0.660598 68:0.402917 69:0.55623 70:0.503583 71:0.625184 72:0.341797 73:0.548871 74:0.478077 75:0.521557 76:0.369773 77:0.678337 78:0.353216 79:0.485647 80:0.524794 81:0.397314 82:0.439167 83:0.632125 84:0.701442 85:0.783993 86:0.476733 87:0.772979 88:0.477116 89:0.597638 90:0.635664 91:0.56349 92:0.597323 93:0.674069 94:0.493802 95:0.542288 96:0.55553 97:0.340322 98:0.347875 99:0.392654 100:0.51811 101:0.450225 102:0.402376 103:0.570064 104:0.413284 105:0.485203 106:0.478261 107:0.438793 108:0.510544 109:0.619194 110:0.520838 111:0.480854 112:0.551025 
-0.0 0.0 0.7582901328598421 0.0940043581238849 0.0 0.4574697812862362 1.0 0.6024904848698018 0.0 0.0 0.2642837265836974 0.0 0.0 1.0 0.0 0.324593149789992 0.0 0.9606212662485003 0.0 0.05074754630314948 0.5865703347663714 0.46907126228240303 0.0 0.0 0.0 0.0 0.0 0.9024397056215875 1.0 1:0.667131 2:0.452468 3:0.595977 4:0.268885 5:0.1192 6:0.072861 7:0.745913 8:0.445336 9:0.60625 10:0.052159 11:0.981693 12:1.8E-5 13:0.752853 14:0.044594 15:0.771277 16:0.137142 17:0.437068 18:0.733804 19:0.173608 20:0.216173 21:7.0E-6 22:1.0E-5 23:0.40549 24:0.226393 25:0.252109 26:0.3265 27:0.356915 28:0.25959 29:0.072803 30:0.054671 31:0.705367 33:0.043026 34:0.057226 35:0.082799 36:0.079474 37:0.321372 38:0.244744 39:0.237596 40:0.260668 41:7.0E-6 42:1.0E-5 43:0.280338 44:0.271922 45:0.258361 46:0.324899 47:0.320748 48:0.391991 49:0.914019 50:0.011683 51:0.610391 52:0.660465 53:0.456456 54:0.364217 55:0.678412 56:0.574473 57:0.345886 58:0.6998 59:0.433471 60:0.606247 61:0.417839 62:0.535469 63:0.39861 64:0.534384 65:0.123463 66:0.439865 67:0.744384 68:0.342578 69:0.570801 70:0.51949 71:0.524585 72:0.486317 73:0.481165 74:0.397183 75:0.629796 76:0.324508 77:0.676879 78:0.353554 79:0.4958 80:0.533064 81:0.29998 82:0.351553 83:0.30286 84:0.236559 85:0.328126 86:0.337468 87:0.628021 88:0.528707 89:0.460722 90:0.664008 91:0.587085 92:0.534636 93:0.364562 94:0.41799 95:0.584715 96:0.607194 97:0.272382 98:1.0 99:0.213397 100:0.57892 101:0.382109 102:0.456511 103:0.627042 104:0.618938 105:0.669564 106:0.643548 107:0.739753 108:0.76909 109:0.662542 110:0.57695 111:0.642875 112:0.822133 
-1.0 1.0 1.0 0.3198836599340073 1.0 1.0 0.72691960474185 1.0 0.7397846164777411 1.0 1.0 1.0 1.0 1.0 1.0 1.0 0.9361235098293713 1.0 1.0 1.0 1.0 1.0 1.0 1.0 1.0 1.0 1.0 1.0 0.8400506004937244 1:0.158484 2:0.404609 3:0.134453 4:0.402116 5:0.106113 6:0.059499 7:0.135775 8:0.38604 9:0.456357 10:0.314277 11:0.983219 13:0.37811 14:0.301543 15:0.559257 16:0.418872 17:0.286794 18:0.439042 19:0.455402 20:0.781087 21:3.67E-4 23:0.417883 24:0.790696 25:0.601389 26:0.816788 27:0.129694 28:0.470944 29:0.057916 30:0.215391 31:0.708797 33:0.011749 34:0.219605 35:0.061181 36:0.184323 37:0.321314 38:0.142915 39:0.268977 40:0.456642 41:2.59E-4 43:0.224087 44:0.468618 45:0.313066 46:0.409327 47:0.113843 48:0.434444 49:0.900944 50:0.284298 51:0.599673 52:0.61803 53:0.367209 54:0.650966 55:0.349613 56:0.497077 57:0.48284 58:0.55073 59:0.509333 60:0.548807 61:0.442777 62:0.690731 63:0.355258 64:0.510598 65:0.080628 66:0.504033 67:0.769222 68:0.304765 69:0.606352 70:0.480932 71:0.587655 72:0.405724 73:0.465667 74:0.504007 75:0.472573 76:0.442886 77:0.646351 78:0.300372 79:0.601428 80:0.436429 81:0.481755 82:0.695742 83:0.374291 84:0.35336 85:0.612944 86:0.510693 87:0.545891 88:0.691349 89:0.756776 90:0.800667 91:0.744813 92:0.805174 93:0.647216 94:0.565392 95:0.767175 96:0.671913 97:0.308118 98:0.522704 99:0.23602 100:0.412118 101:0.495749 102:0.476713 103:0.665293 104:0.576002 105:0.650109 106:0.579532 107:0.627206 108:0.721323 109:0.680456 110:0.619346 111:0.572533 112:0.613596 
-0.0 0.0 0.0 0.0 0.0 0.0 1.0 0.0 0.45162573018852487 0.0 0.0 0.06771611224429934 0.0 0.0 0.0 0.0 0.036123923453716185 0.0 0.0 0.6652713896149568 0.21138792224625585 0.0 0.0 0.0 0.0 0.0 0.0 0.0 0.0 1:0.108786 2:0.270775 3:0.093948 4:0.199938 5:0.10567 6:0.028132 7:0.098279 8:0.101529 9:0.278674 10:0.395445 11:0.982575 13:0.156087 14:0.382642 15:0.28106 16:0.567629 17:0.251353 18:0.02877 19:0.23038 20:0.572128 21:7.2E-5 23:0.16809 24:0.582509 25:0.237774 26:0.563937 27:0.053858 28:0.02396 29:0.027035 30:0.111711 31:0.706989 33:0.001797 34:0.115526 35:0.031449 36:0.102924 37:0.32105 38:0.14203 39:0.092931 40:0.369341 41:1.6E-5 43:0.140318 44:0.393058 45:0.07316 46:0.349692 47:0.04841 48:0.029465 49:0.911468 50:0.515971 51:0.34742 52:0.739438 53:0.433295 54:0.126225 55:0.783033 56:0.567989 57:0.27159 58:0.740801 59:0.790444 60:0.270557 61:0.486466 62:0.715937 63:0.160702 64:0.387883 65:0.084877 66:0.520345 67:0.729308 68:0.331055 69:0.596761 70:0.465918 71:0.624995 72:0.408636 73:0.506218 74:0.430595 75:0.580359 76:0.35836 77:0.658735 78:0.364272 79:0.505454 80:0.486698 81:0.370947 82:0.436853 83:0.366564 84:0.602284 85:0.393381 86:0.18366 87:0.575326 88:0.262449 89:0.571632 90:0.275823 91:0.217583 92:0.508521 93:0.297937 94:0.46962 95:0.269787 96:0.31167 97:0.254494 98:0.254875 99:0.255807 100:0.4733 101:0.250122 102:0.548285 103:0.504926 104:0.297924 105:0.611156 106:0.294951 107:0.407355 108:0.515249 109:0.329884 110:0.448704 111:0.40361 112:0.374011 
-1.0 1.0 1.0 0.0 0.9384440312843497 1.0 1.0 1.0 1.0 1.0 1.0 1.0 1.0 1.0 1.0 1.0 1.0 1.0 1.0 1.0 1.0 1.0 0.7348941402631359 1.0 1.0 0.9890193225911287 1.0 1.0 1.0 1:0.139937 2:0.32379 3:0.220439 4:0.367389 5:0.114268 6:0.099997 7:0.18176 8:0.353375 9:0.358369 10:0.340621 11:0.982257 12:3.0E-6 13:0.235748 14:0.324646 15:0.40292 16:0.494547 17:0.251059 18:0.190051 19:0.40686 20:0.55863 21:4.3E-5 22:3.0E-6 23:0.430892 24:0.561439 25:0.476462 26:0.640307 27:0.110203 28:0.31058 29:0.098049 30:0.231342 31:0.707368 33:0.014133 34:0.22862 35:0.100851 36:0.243888 37:0.31976 38:0.159148 39:0.322521 40:0.449616 41:1.4E-5 42:3.0E-6 43:0.277935 44:0.455474 45:0.288293 46:0.428742 47:0.108642 48:0.265907 49:0.838288 50:0.383822 51:0.391773 52:0.598192 53:0.383197 54:0.505978 55:0.738801 56:0.547315 57:0.333906 58:0.619184 59:0.490427 60:0.560742 61:0.544729 62:0.559995 63:0.333333 64:0.393182 65:0.147817 66:0.463441 67:0.669792 68:0.421463 69:0.587677 70:0.448754 71:0.65117 72:0.431209 73:0.440256 74:0.520838 75:0.53745 76:0.369793 77:0.64975 78:0.417743 79:0.446389 80:0.51898 81:0.417168 82:0.546176 83:0.476431 84:0.874092 85:0.480844 86:0.540812 87:0.732286 88:0.561932 89:0.522737 90:0.659822 91:0.426285 92:0.818511 93:0.629041 94:0.491557 95:0.630439 96:0.463842 97:0.352531 98:0.408473 99:0.257005 100:0.611934 101:0.370504 102:0.402844 103:0.588276 104:0.516725 105:0.546386 106:0.395043 107:0.369879 108:0.615962 109:0.58963 110:0.527178 111:0.567926 112:0.513371 
-0.298646515272664 0.0 0.4019995523065612 0.9027300631519002 0.6002198101175386 1.0 1.0 0.0 0.18295673211509705 0.9659923903139356 0.866919218877672 1.0 0.994393950129357 1.0 0.34282333904823475 0.0 1.0 1.0 1.0 1.0 0.9213823494683245 0.0 0.027594304009416686 0.0 0.6373406106105909 0.7948068452514171 1.0 0.6635195751400094 1.0 1:0.103591 2:0.549427 3:0.098799 4:0.58986 5:0.108576 6:0.096065 7:0.08554 8:0.416674 9:0.588484 10:0.279105 11:0.981798 13:0.194765 14:0.259214 15:0.644808 16:0.45437 17:0.267723 18:0.263111 19:0.593257 20:0.486753 21:2.2E-5 23:0.150619 24:0.491769 25:0.633777 26:0.514997 27:0.109947 28:0.47105 29:0.094584 30:0.156086 31:0.705231 33:0.008101 34:0.154928 35:0.097164 36:0.148887 37:0.32345 38:0.148818 39:0.355936 40:0.343671 41:6.0E-6 43:0.086093 44:0.354319 45:0.33945 46:0.334224 47:0.049945 48:0.297916 49:0.913477 50:0.24082 51:0.589894 52:0.372409 53:0.754372 54:0.174713 55:0.723001 56:0.53229 57:0.491726 58:0.532213 59:0.532386 60:0.742008 61:0.061716 62:0.861412 63:0.174387 64:0.682365 65:0.143106 66:0.445407 67:0.783387 68:0.275204 69:0.658727 70:0.451214 71:0.632206 72:0.4141 73:0.510297 74:0.436936 75:0.549424 76:0.433764 77:0.571958 78:0.430122 79:0.464343 80:0.553563 81:0.305072 82:0.36461 83:0.821858 84:0.667958 85:0.40435 86:0.479031 87:0.416659 88:0.667661 89:0.528171 90:0.513333 91:0.550443 92:0.461121 93:0.460461 94:0.50366 95:0.642948 96:0.622394 97:0.246641 98:0.345193 99:0.353396 100:0.393949 101:0.459902 102:0.614404 103:0.347076 104:0.547865 105:0.421346 106:0.378057 107:0.379235 108:0.447625 109:0.612078 110:0.521422 111:0.515746 112:0.592961 
-0.0 0.0 0.0 0.0 0.7947556434226707 0.0 0.0 0.0 0.0 0.0 0.0 0.2206680615171125 0.0 0.0 0.0 0.0 0.0 0.0 0.0 0.0 0.0 0.0 0.0 0.0 0.0 0.0 0.0 0.0 0.0 1:0.143285 2:0.279211 3:0.073069 4:0.027212 5:0.116038 6:0.035404 7:0.085065 8:0.106352 9:0.292149 10:0.201198 11:0.982174 13:0.195032 14:0.185153 15:0.296658 16:0.40764 17:0.22871 18:0.037089 19:0.017648 20:0.217405 21:2.0E-6 23:0.110346 24:0.225001 25:0.015362 26:0.268482 27:0.06136 28:0.01859 29:0.034776 30:0.080544 31:0.705646 33:0.006781 34:0.084292 35:0.039191 36:0.085379 37:0.315544 38:0.14413 39:0.103316 40:0.143059 41:7.0E-6 43:0.115318 44:0.154504 45:0.083544 46:0.182681 47:0.053028 48:0.026242 49:0.97847 50:0.465271 51:0.212676 52:0.80485 53:0.691 54:0.093235 55:0.621571 56:0.809076 57:0.316761 58:0.406473 59:0.842339 60:0.554677 61:0.150085 62:0.656206 63:0.56837 64:0.300058 65:0.131933 66:0.498488 67:0.685674 68:0.378424 69:0.644886 70:0.427681 71:0.616439 72:0.482093 73:0.479526 74:0.360222 75:0.648937 76:0.389244 77:0.569627 78:0.381514 79:0.582099 80:0.446415 81:0.222515 82:0.044348 83:0.196815 84:0.163355 85:0.17613 86:0.204361 87:0.190589 88:0.215788 89:0.221681 90:0.219516 91:0.185808 92:0.261938 93:0.178934 94:0.245358 95:0.230884 96:0.198031 97:0.24585 98:0.125287 99:0.417044 100:0.504818 101:0.373227 102:0.699508 103:0.231095 104:0.68736 105:0.455796 106:0.401839 107:0.465984 108:0.291688 109:0.468458 110:0.306267 111:0.325045 112:0.343841 
-0.0 0.0 0.0 0.0 0.0 0.0 0.0 0.0 0.0 0.0 0.0 0.0 0.18927655711585936 0.0 0.0 0.0 0.0 0.0 0.0 0.0 0.6293106907593786 0.0 0.0 0.0 0.0 0.0 0.0 0.0 0.0 1:0.062239 2:0.623482 3:0.074188 4:0.400497 5:0.107785 6:0.060984 7:0.081645 8:0.329087 9:0.640476 10:0.381585 11:0.981661 13:0.168409 14:0.363705 15:0.675094 16:0.569767 17:0.281897 18:0.167664 19:0.35387 20:0.430657 21:1.4E-5 23:0.14636 24:0.4464 25:0.316562 26:0.446507 27:0.049811 28:0.359977 29:0.058996 30:0.081186 31:0.705072 33:0.008808 34:0.081979 35:0.061919 36:0.089913 37:0.322791 38:0.138348 39:0.268611 40:0.366104 41:6.0E-6 43:0.123728 44:0.389105 45:0.22561 46:0.346124 47:0.037602 48:0.290764 49:0.938272 50:0.171231 51:0.707429 52:0.337512 53:0.592227 54:0.459347 55:0.456449 56:0.830065 58:1.0 59:0.13257 60:0.864901 61:0.104965 62:0.785569 63:0.357672 64:0.277179 65:0.101639 66:0.464167 67:0.773995 68:0.297773 69:0.611067 70:0.497699 71:0.581946 72:0.433322 73:0.495829 74:0.465611 75:0.531271 76:0.415307 77:0.632083 78:0.353312 79:0.527506 80:0.486691 81:0.235865 82:0.224033 83:0.532651 84:0.483904 85:0.158352 86:0.457508 87:0.427255 88:0.314863 89:0.452202 90:0.442337 91:0.537469 92:0.5378 93:0.314786 94:0.380632 95:0.371996 96:0.286179 97:0.219789 98:0.375531 99:0.215098 100:0.294209 101:0.174562 102:0.355948 103:0.380538 104:0.638506 105:0.912652 106:0.634027 107:0.599845 108:0.613675 109:0.534825 110:0.437476 111:0.310562 112:0.424172 
-0.0 0.17353118478695886 0.00854432293514521 0.0 0.007781248398105041 0.0 0.770098650973642 1.0 0.562859793705205 1.0 0.0 0.49759466093550614 0.0 0.0 0.0 0.056290117145597486 0.0 0.0 0.0 0.2080742536023597 0.0 1.0 0.0 0.3971569678181898 0.0 0.0 0.0 0.36296980138400486 0.0 1:0.153958 2:0.3242 3:0.125851 4:0.036705 5:0.218371 6:0.324553 7:0.165738 8:0.354652 9:0.34205 10:0.284938 11:0.982023 13:0.192321 14:0.272965 15:0.354646 16:0.440001 17:0.252767 18:0.069745 19:0.033774 20:0.604963 21:2.0E-6 23:0.120066 24:0.63598 25:0.060446 26:0.639015 27:0.045083 28:0.06511 29:0.327768 30:0.938747 31:0.719805 33:0.144181 34:0.952114 35:0.324682 36:1.0 37:0.294577 38:0.195054 39:0.37531 40:0.547503 41:1.9E-5 43:0.132023 44:0.572413 45:0.327334 46:0.519956 47:0.056032 48:0.128936 49:0.863286 50:0.373414 51:0.313198 52:0.90508 53:0.425124 54:0.179163 55:0.956549 56:0.463202 57:0.241747 58:0.770715 59:0.618353 60:0.258948 61:0.602475 62:0.631029 63:0.290049 64:0.478744 65:0.463632 66:0.423418 67:0.316592 68:0.926096 69:0.488061 70:0.204634 71:1.0 72:0.476523 73:0.094103 74:0.749498 75:0.70178 77:0.829479 78:0.615894 79:0.138713 80:0.570932 81:0.545263 82:0.083717 83:0.180143 84:0.297197 85:0.198346 86:0.225911 87:0.308484 88:0.196664 89:0.283169 90:0.271494 91:0.249864 92:0.272658 93:0.248916 94:0.318559 95:0.343346 96:0.215468 97:0.654175 98:0.215241 99:0.359536 100:0.767418 101:0.275014 102:0.581722 103:0.70602 104:0.236516 105:0.662689 106:0.399775 107:0.354641 108:0.537538 109:0.40731 110:0.495769 111:0.522363 112:0.433208 
-0.0 0.09854006339007028 0.0 0.0 0.0 0.0 1.0 0.0 0.05554807999723381 0.0 0.0 1.0 0.0 0.0 0.0 0.0 0.0 0.0 0.0 0.0 0.0 0.0 0.0 0.0 0.0 0.0 0.0 0.0 0.0 1:0.1516 2:0.312997 3:0.116966 4:0.171943 5:0.108606 6:0.033758 7:0.139429 8:0.123614 9:0.324392 10:0.256834 11:0.98404 13:0.221411 14:0.242085 15:0.329778 16:0.447251 17:0.238675 18:0.042043 19:0.189648 20:0.410297 21:8.86E-4 23:0.19331 24:0.420671 25:0.192606 26:0.443881 27:0.07506 28:0.031713 29:0.03282 30:0.074083 31:0.712209 33:0.006024 34:0.075735 35:0.037272 36:0.078425 37:0.31998 38:0.144028 39:0.114709 40:0.32067 41:6.49E-4 43:0.178683 44:0.330904 45:0.091746 46:0.312701 47:0.068832 48:0.040666 49:0.938878 50:0.420481 51:0.328181 52:0.885241 53:0.457722 54:0.202985 55:0.901384 56:0.529075 57:0.222068 58:0.749806 59:0.675378 60:0.227601 61:0.587909 62:0.689875 63:0.214204 64:0.525238 65:0.084621 66:0.503124 67:0.741421 68:0.331747 69:0.612644 70:0.48341 71:0.603735 72:0.41816 73:0.5293 74:0.397264 75:0.590258 76:0.385949 77:0.625964 78:0.361533 79:0.535158 80:0.474407 81:0.314346 82:0.263814 83:0.35041 84:0.263826 85:0.310517 86:0.393051 87:0.393416 88:0.338221 89:0.39033 90:0.393994 91:0.360501 92:0.346555 93:0.440946 94:0.343231 95:0.373845 96:0.434854 97:0.25959 98:0.20902 99:0.280619 100:0.59157 101:0.218561 102:0.569445 103:0.625675 104:0.32749 105:0.648619 106:0.362099 107:0.381393 108:0.510788 109:0.426229 110:0.414676 111:0.398205 112:0.43255 
-1.0 1.0 1.0 1.0 0.0 0.5899674757328911 1.0 1.0 1.0 1.0 0.3025149151200933 1.0 0.03126077082925236 1.0 1.0 1.0 0.0 1.0 0.0 1.0 0.9142291766045189 1.0 0.4555342353676598 1.0 0.86896541342816 0.0 1.0 1.0 1.0 1:0.172831 2:0.448325 3:0.299207 4:0.506328 5:0.114587 6:0.109225 7:0.251259 8:0.47104 9:0.4796 10:0.349454 11:0.982512 13:0.302727 14:0.331728 15:0.528524 16:0.483179 17:0.231405 18:0.266545 19:0.474498 20:0.660087 21:2.27E-4 23:0.476143 24:0.669897 25:0.495266 26:0.726227 27:0.25643 28:0.434587 29:0.112899 30:0.205349 31:0.710569 33:0.018276 34:0.199977 35:0.113811 36:0.227557 37:0.319694 38:0.122535 39:0.382124 40:0.565966 41:1.12E-4 43:0.329575 44:0.588893 45:0.327402 46:0.503312 47:0.182812 48:0.430699 49:0.859654 50:0.301549 51:0.556541 52:0.58621 53:0.420241 54:0.507409 55:0.468359 56:0.613464 57:0.195385 58:0.810837 59:0.333247 60:0.589426 61:0.40772 62:0.615739 63:0.472285 64:0.373498 65:0.153718 66:0.421845 67:0.723762 68:0.416456 69:0.576786 70:0.502589 71:0.611834 72:0.424029 73:0.409494 74:0.529383 75:0.49559 76:0.367361 77:0.764331 78:0.294316 79:0.532264 80:0.491194 81:0.396885 82:0.487873 83:0.682361 84:0.746013 85:0.553948 86:0.450418 87:0.729344 88:0.619684 89:0.585005 90:0.659376 91:0.59687 92:0.656008 93:0.562285 94:0.508671 95:0.655169 96:0.607845 97:0.317609 98:0.434556 99:0.324672 100:0.56465 101:0.466221 102:0.368141 103:0.652866 104:0.570533 105:0.673518 106:0.551674 107:0.533387 108:0.522481 109:0.570613 110:0.531005 111:0.578732 112:0.64698 
-1.0 0.4354098376204526 0.9465902056321324 1.0 1.0 1.0 0.5043177216379298 0.14831703978248942 0.5000998974923421 0.3239455056929713 1.0 1.0 1.0 1.0 1.0 1.0 1.0 1.0 1.0 0.9113251718677852 0.9485325146803382 0.0 1.0 1.0 1.0 0.2976316016182865 1.0 1.0 0.0 1:0.088252 2:0.464698 3:0.08498 4:0.458273 5:0.108078 6:0.037403 7:0.128793 8:0.43505 9:0.469212 10:0.35981 11:0.982965 13:0.185709 14:0.345826 15:0.508163 16:0.520143 17:0.282676 18:0.232067 19:0.478823 20:0.583235 21:2.42E-4 23:0.150758 24:0.602721 25:0.511543 26:0.620928 27:0.03304 28:0.39653 29:0.036523 30:0.098195 31:0.715741 33:0.005408 34:0.097905 35:0.040936 36:0.097576 37:0.319854 38:0.145368 39:0.314703 40:0.555115 41:8.0E-5 43:0.097637 44:0.58865 45:0.208826 46:0.548491 47:0.038569 48:0.404878 49:0.928448 50:0.326181 51:0.661509 52:0.614984 53:0.36817 54:0.692803 55:0.318149 56:0.720092 57:0.218615 58:0.575147 59:0.629745 60:0.237474 61:0.57842 62:0.390204 63:0.568955 64:0.230127 65:0.107283 66:0.524166 67:0.761058 68:0.344109 69:0.606362 70:0.498138 71:0.598064 72:0.40814 73:0.520145 74:0.401789 75:0.569822 76:0.365522 77:0.660122 78:0.333623 79:0.532452 80:0.513748 81:0.302793 82:0.599561 83:0.534454 84:0.352013 85:0.554415 86:0.623929 87:0.712691 88:0.771848 89:0.76161 90:0.451763 91:0.55381 92:0.603807 93:0.680356 94:0.626605 95:0.465946 96:0.472293 97:0.246672 98:0.371048 99:0.256298 100:0.288825 101:0.338705 102:0.536183 103:0.724721 104:0.694758 105:0.720042 106:0.291472 107:0.39735 108:0.578208 109:0.60008 110:0.570958 111:0.426265 112:0.508128 
-0.0 0.0 0.0 0.0 0.0 0.0 1.0 0.0 0.9239634578374739 1.0 0.0 0.0 0.0 0.0 0.0 0.0 0.0 0.0 0.0 1.0 0.0 0.7091559556293515 0.1924318098489754 0.0 0.6641191435637478 0.0 0.4447364872138982 0.0 0.0 1:0.210079 2:0.400316 3:0.165701 4:0.546163 5:0.125691 6:0.099681 7:0.151886 8:0.339999 9:0.419707 10:0.291837 11:0.982027 13:0.222357 14:0.276113 15:0.42875 16:0.435945 17:0.206907 18:0.062732 19:0.562028 20:0.649992 21:2.2E-5 23:0.192899 24:0.659251 25:0.557084 26:0.673184 27:0.140344 28:0.064199 29:0.100036 30:0.152791 31:0.705991 33:0.010268 34:0.154155 35:0.102858 36:0.15911 37:0.316483 38:0.155389 39:0.321948 40:0.405806 41:8.0E-6 43:0.147838 44:0.411125 45:0.254013 46:0.347373 47:0.091182 48:0.057995 49:0.93308 50:0.384868 51:0.357184 52:0.597196 53:0.754468 54:0.149169 55:0.610324 56:0.682682 57:0.437573 58:0.48963 59:0.62016 60:0.606659 61:0.280556 62:0.692411 63:0.268428 64:0.566669 65:0.141748 66:0.460437 67:0.75051 68:0.305727 69:0.664335 70:0.435501 71:0.631302 72:0.434053 73:0.502192 74:0.406132 75:0.584485 76:0.431321 77:0.585407 78:0.41129 79:0.497303 80:0.516563 81:0.373268 82:0.330065 83:0.870705 84:0.732461 85:0.227954 86:0.329793 87:0.332024 88:0.542709 89:0.28541 90:0.391001 91:0.402677 92:0.361665 93:0.370484 94:0.388016 95:0.583764 96:0.555771 97:0.341539 98:0.265135 99:0.506174 100:0.573981 101:0.540265 102:0.750042 103:0.344292 104:0.645511 105:0.329419 106:0.339627 107:0.320697 108:0.372061 109:0.502577 110:0.443429 111:0.65119 112:0.556313 
-0.8906339543723594 1.0 1.0 0.8472114895155103 0.9040083355183813 1.0 1.0 1.0 0.7900722255299906 1.0 1.0 0.7108241996584871 1.0 1.0 1.0 1.0 0.0 1.0 1.0 1.0 1.0 1.0 0.876401137987133 1.0 0.668392150863896 0.6090821099248143 0.9630835487833904 1.0 1.0 1:0.406199 2:0.321273 3:0.482087 4:0.424287 5:0.120468 6:0.133242 7:0.384494 8:0.31741 9:0.46375 10:0.271559 11:0.981932 12:3.68E-4 13:0.49192 14:0.261222 15:0.577 16:0.354598 17:0.127933 18:0.464746 19:0.249666 20:0.654391 21:2.0E-5 22:1.47E-4 23:0.687145 24:0.660689 25:0.347332 26:0.836174 27:0.4449 28:0.533294 29:0.131004 30:0.300874 31:0.70755 33:0.018035 34:0.299241 35:0.134222 36:0.2972 37:0.31768 38:0.177511 39:0.282356 40:0.463105 41:1.4E-5 42:1.33E-4 43:0.257771 44:0.474772 45:0.247799 46:0.40285 47:0.331338 48:0.241346 49:0.835844 50:0.243793 51:0.450347 52:0.4921 53:0.35241 54:0.718329 55:0.502396 56:0.592478 57:0.419836 58:0.636113 59:0.52095 60:0.413929 61:0.563803 62:0.491746 63:0.392296 64:0.618323 65:0.139793 66:0.421562 67:0.748863 68:0.36216 69:0.496814 70:0.581002 71:0.533483 72:0.424647 73:0.482169 74:0.474104 75:0.600799 76:0.284013 77:0.730951 78:0.332533 79:0.505445 80:0.506079 81:0.521534 82:0.312476 83:0.46214 84:0.523623 85:0.476001 86:0.440383 87:0.754523 88:0.58012 89:0.455023 90:0.577468 91:0.541081 92:0.616408 93:0.712192 94:0.634639 95:0.587764 96:0.470912 97:0.398494 98:0.397501 99:0.302963 100:0.41705 101:0.385505 102:0.430808 103:0.603778 104:0.531593 105:0.501955 106:0.476209 107:0.476895 108:0.546984 109:0.630497 110:0.504912 111:0.493008 112:0.569558 
-0.0 0.0 0.0 0.0 0.0 0.0 1.0 0.0 0.0 0.0 0.0 0.0 0.0 0.0 0.0 0.0 0.0 0.0 0.0 0.0 0.0 0.6883050437959302 0.0 0.0 0.0 0.0 0.3139900484069377 0.0 0.0 1:0.155838 2:0.293443 3:0.123554 4:0.155291 5:0.118992 6:0.093934 7:0.173695 8:0.201636 9:0.305099 10:0.30745 11:0.982153 13:0.236942 14:0.295579 15:0.309008 16:0.485884 17:0.233938 18:0.034699 19:0.155876 20:0.551622 21:8.0E-6 23:0.195359 24:0.562669 25:0.152018 26:0.547756 27:0.075202 28:0.024531 29:0.092683 30:0.293574 31:0.708799 33:0.021128 34:0.288394 35:0.095111 36:0.298716 37:0.318553 38:0.150115 39:0.200888 40:0.541227 41:1.3E-5 43:0.225327 44:0.562434 45:0.162499 46:0.482021 47:0.088082 48:0.045914 49:0.934467 50:0.449398 51:0.255968 52:0.753723 53:0.675715 54:0.151624 55:0.598438 56:0.775968 57:0.34469 58:0.435859 59:0.802761 60:0.514632 61:0.2447 62:0.627624 63:0.53911 64:0.298103 65:0.113572 66:0.483394 67:0.714284 68:0.344797 69:0.611726 70:0.473126 71:0.579872 72:0.450395 73:0.499635 74:0.397179 75:0.594445 76:0.372586 77:0.648715 78:0.319133 79:0.55434 80:0.483911 81:0.390341 82:0.143818 83:0.330467 84:0.233044 85:0.283852 86:0.387543 87:0.316909 88:0.220752 89:0.249113 90:0.253758 91:0.222374 92:0.330148 93:0.399363 94:0.400946 95:0.283473 96:0.28177 97:0.335771 98:0.139432 99:0.337453 100:0.430754 101:0.318741 102:0.589842 103:0.28064 104:0.596127 105:0.420877 106:0.343258 107:0.45374 108:0.36521 109:0.536545 110:0.457797 111:0.409401 112:0.511704 
-1.0 1.0 1.0 0.0 0.7794640675643187 1.0 1.0 1.0 1.0 1.0 0.9655401050091481 1.0 0.8313118502315221 1.0 1.0 1.0 0.0 1.0 1.0 1.0 0.16679565400935206 1.0 0.9834129648199137 1.0 1.0 0.5204665581605834 1.0 1.0 1.0 1:0.151939 2:0.370363 3:0.14794 4:0.258797 5:0.173698 6:0.104836 7:0.171181 8:0.243768 9:0.386695 10:0.245731 11:0.98199 13:0.266601 14:0.232499 15:0.401684 16:0.419277 17:0.247217 18:0.094449 19:0.282817 20:0.462636 21:1.7E-5 23:0.244975 24:0.479777 25:0.3158 26:0.524587 27:0.132249 28:0.135554 29:0.107096 30:0.212692 31:0.709653 33:0.05142 34:0.209805 35:0.111712 36:0.257311 37:0.263422 38:0.174935 39:0.233402 40:0.407811 41:1.4E-5 43:0.238634 44:0.426678 45:0.187398 46:0.411994 47:0.128436 48:0.128778 49:0.823923 50:0.344141 51:0.360731 52:0.792317 53:0.455092 54:0.374261 55:0.604226 56:0.639939 57:0.391785 58:0.513555 59:0.751601 60:0.379953 61:0.448817 62:0.583259 63:0.442028 64:0.355672 65:0.11944 66:0.501406 67:0.715587 68:0.350836 69:0.621637 70:0.464626 71:0.603541 72:0.440121 73:0.517283 74:0.379661 75:0.62033 76:0.361352 77:0.627835 78:0.409165 79:0.454355 80:0.525424 81:0.338655 82:0.361191 83:0.567173 84:0.33665 85:0.7471 86:0.876719 87:0.592919 88:0.433102 89:0.582968 90:0.372399 91:0.389284 92:0.478636 93:0.478759 94:0.664559 95:0.606381 96:0.435641 97:0.325394 98:0.395022 99:0.441739 100:0.676279 101:0.516543 102:0.763636 103:0.515701 104:0.629359 105:0.689647 106:0.380417 107:0.517231 108:0.536731 109:0.618317 110:0.747734 111:0.61696 112:0.501323 
-0.0 0.0 0.0 0.0 0.0 0.0 1.0 0.0 0.0 0.7194539245167386 0.0 1.0 0.0 0.0 0.0 0.0 0.0 0.0 0.0 1.0 0.0 0.0 0.0 0.0 0.16134153834808765 1.0 1.0 0.0 0.0 1:0.145343 2:0.261881 3:0.091377 4:0.197161 5:0.114017 6:0.03068 7:0.101995 8:0.233594 9:0.276022 10:0.221816 11:0.981966 13:0.220916 14:0.205979 15:0.287529 16:0.41171 17:0.225947 18:0.06709 19:0.198723 20:0.384441 21:8.36E-4 23:0.13657 24:0.402568 25:0.238467 26:0.411643 27:0.071304 28:0.234644 29:0.029939 30:0.134154 31:0.71638 33:0.008505 34:0.141569 35:0.034412 36:0.123868 37:0.319258 38:0.144661 39:0.177955 40:0.272637 41:6.96E-4 43:0.135987 44:0.281087 45:0.180116 46:0.25081 47:0.067894 48:0.28192 49:0.947621 50:0.505329 51:0.280392 52:0.770394 53:0.698815 54:0.16817 55:0.629515 56:0.763173 57:0.342744 58:0.448728 59:0.768385 60:0.538257 61:0.196811 62:0.639736 63:0.470688 64:0.349845 65:0.122063 66:0.535748 67:0.715998 68:0.335711 69:0.644205 70:0.482096 71:0.612305 72:0.423845 73:0.530455 74:0.412622 75:0.589052 76:0.392479 77:0.644692 78:0.342076 79:0.537542 80:0.490237 81:0.311062 82:0.27314 83:0.566317 84:0.302241 85:0.209111 86:0.434154 87:0.201255 88:0.344691 89:0.254318 90:0.322427 91:0.382647 92:0.314817 93:0.278654 94:0.312385 95:0.412059 96:0.250085 97:0.280506 98:0.253413 99:0.355105 100:0.441706 101:0.353992 102:0.571911 103:0.215363 104:0.564215 105:0.379497 106:0.338723 107:0.419266 108:0.34537 109:0.468699 110:0.385591 111:0.399334 112:0.384083 
-0.0 0.0 0.0 0.0 0.0 0.0 0.8435769452901037 0.0 0.0 0.0 0.0 1.0 0.0 0.0 0.0 0.0 0.0 0.0 0.0 0.0 0.0 0.0 0.0 0.0 0.0 0.0 0.0 0.0 0.0 1:0.102534 2:0.292298 3:0.084422 4:0.036901 5:0.106475 6:0.037405 7:0.108387 8:0.11668 9:0.299986 10:0.329145 11:0.982149 13:0.185648 14:0.312769 15:0.303789 16:0.523852 17:0.245454 18:0.038309 19:0.036905 20:0.438234 21:4.0E-6 23:0.150392 24:0.445727 25:0.072814 26:0.44339 27:0.057038 28:0.073147 29:0.036423 30:0.11755 31:0.705731 33:0.005006 34:0.11761 35:0.040614 36:0.110719 37:0.320611 38:0.142775 39:0.108177 40:0.418872 41:8.0E-6 43:0.143093 44:0.431578 45:0.110791 46:0.382378 47:0.058405 48:0.075881 49:0.956397 50:0.450228 51:0.233682 52:0.813662 53:0.651872 54:0.099002 55:0.676444 56:0.781053 57:0.259597 58:0.472214 59:0.860699 60:0.451461 61:0.198763 62:0.72255 63:0.509726 64:0.25497 65:0.099931 66:0.498511 67:0.722842 68:0.34263 69:0.624192 70:0.463578 71:0.614934 72:0.42698 73:0.514973 74:0.404906 75:0.59113 76:0.382084 77:0.638514 78:0.35022 79:0.536509 80:0.486483 81:0.245022 82:0.07276 83:0.202851 84:0.170348 85:0.210181 86:0.202521 87:0.309876 88:0.271147 89:0.307239 90:0.341758 91:0.19905 92:0.427197 93:0.276308 94:0.395064 95:0.431879 96:0.312973 97:0.22212 98:0.142125 99:0.379005 100:0.462974 101:0.296261 102:0.622448 103:0.266308 104:0.624914 105:0.467463 106:0.358555 107:0.462725 108:0.341419 109:0.493037 110:0.434457 111:0.387109 112:0.454212 
-0.8910062815987658 1.0 1.0 0.0 0.12200620908439958 1.0 0.0 0.5860900339297795 0.0036864628936179016 0.05195225674696619 0.4403383604747726 0.0 1.0 1.0 1.0 0.9787171113306662 0.0 1.0 0.5563617472613579 0.0 1.0 0.2531353998270034 0.0 0.9848713156532141 0.0 0.0 0.0 1.0 1.0 1:0.511851 2:0.362627 3:0.339718 4:0.139162 5:0.069523 6:0.052251 7:0.450618 8:0.239378 9:0.491641 10:0.072861 11:0.981775 13:0.519229 14:0.063701 15:0.570938 16:0.167572 17:0.240108 18:0.364663 19:0.065106 20:0.331803 21:3.0E-6 23:0.273617 24:0.326635 25:0.116879 26:0.394634 27:0.073683 28:0.175235 29:0.048225 30:0.119665 31:0.705049 33:0.011394 34:0.120145 35:0.051453 36:0.115836 37:0.323758 38:0.129116 39:0.180062 40:0.183582 41:6.0E-6 43:0.226705 44:0.177178 45:0.185814 46:0.196829 47:0.070087 48:0.249966 49:0.941892 50:0.111341 51:0.50482 52:0.895902 53:0.149463 54:0.712137 55:0.513062 56:0.58094 57:0.318273 58:0.725433 59:0.56729 60:0.408252 61:0.407508 62:0.688776 63:0.40131 64:0.34564 65:0.082194 66:0.493712 67:0.743632 68:0.340791 69:0.565224 70:0.523215 71:0.600833 72:0.338738 73:0.640197 74:0.320168 75:0.588855 76:0.416316 77:0.612675 78:0.35734 79:0.544185 80:0.459951 81:0.355986 82:0.223411 83:0.203975 84:0.292466 85:0.373854 86:0.239093 87:0.240187 88:0.416761 89:0.50444 90:0.531684 91:0.314335 92:0.43941 93:0.394824 94:0.453828 95:0.520008 96:0.52934 97:0.245844 98:0.618264 99:0.122073 100:0.661949 101:0.547328 102:0.251767 103:0.280822 104:0.515482 105:0.709947 106:0.437056 107:0.310923 108:0.470836 109:0.61228 110:0.7101 111:0.639685 112:0.758017 
-0.0 1.0 0.012187675650456217 0.0 0.0 0.0 1.0 1.0 1.0 1.0 0.0 0.14381649508916677 0.0 0.5889754765758141 0.3558568287110198 0.5572695192538901 0.0 0.0 0.14204577062827076 0.8947195507041656 0.024514613375042023 0.1350195791320114 0.0 0.8493158314239264 0.0 0.26014554905914766 0.0 0.12660284401476005 0.49378302757796977 1:0.166807 2:0.323934 3:0.130796 4:0.137309 5:0.107958 6:0.032406 7:0.152851 8:0.157207 9:0.339491 10:0.267363 11:0.982304 13:0.221243 14:0.259806 15:0.348424 16:0.447497 17:0.237093 18:0.062638 19:0.145027 20:0.508524 21:1.0E-4 23:0.181504 24:0.532527 25:0.138669 26:0.53909 27:0.069635 28:0.100739 29:0.031398 30:0.10603 31:0.708049 33:0.00284 34:0.106594 35:0.035703 36:0.09859 37:0.320671 38:0.142383 39:0.14236 40:0.404486 41:4.0E-5 43:0.177988 44:0.432411 45:0.120741 46:0.381585 47:0.065704 48:0.112786 49:0.948048 50:0.408981 51:0.339541 52:0.958881 53:0.405508 54:0.212468 55:0.980764 56:0.412605 57:0.233602 58:0.812555 59:0.481362 60:0.247309 61:0.682825 62:0.462543 63:0.234567 64:0.614165 65:0.096468 66:0.516708 67:0.743888 68:0.347317 69:0.61256 70:0.476855 71:0.628002 72:0.397724 73:0.510608 74:0.425582 75:0.560372 76:0.3546 77:0.662388 78:0.338499 79:0.497019 80:0.494463 81:0.283624 82:0.26292 83:0.289631 84:0.313234 85:0.328197 86:0.265008 87:0.302905 88:0.322757 89:0.278829 90:0.425578 91:0.338277 92:0.34158 93:0.480875 94:0.347704 95:0.363611 96:0.377425 97:0.254246 98:0.299231 99:0.283736 100:0.783966 101:0.283854 102:0.590011 103:0.753506 104:0.313947 105:0.630712 106:0.485811 107:0.301484 108:0.494088 109:0.510755 110:0.421545 111:0.430437 112:0.412021 
-0.3373561983130402 0.49442372357795966 0.5659787417385111 0.0 1.0 0.019246757956964528 1.0 0.409025033292267 1.0 1.0 0.0 1.0 1.0 0.0391536302012689 0.5013532980381604 0.2484835817191422 0.44196185074580296 1.0 0.37260053149048317 1.0 0.0 1.0 1.0 0.6709891722848801 1.0 1.0 1.0 0.06876709622160879 0.3251650148963735 1:0.127606 2:0.300967 3:0.093827 4:0.175937 5:0.120216 6:0.068139 7:0.111995 8:0.184858 9:0.310734 10:0.275475 11:0.982153 13:0.20187 14:0.260952 15:0.315061 16:0.471568 17:0.24099 18:0.037965 19:0.192932 20:0.383724 21:1.2E-5 23:0.171129 24:0.408633 25:0.201335 26:0.429728 27:0.076271 28:0.036375 29:0.067633 30:0.158132 31:0.707235 33:0.011212 34:0.163603 35:0.071372 36:0.177698 37:0.315881 38:0.150621 39:0.177894 40:0.335207 41:1.1E-5 43:0.164445 44:0.363873 45:0.141343 46:0.361317 47:0.065667 48:0.035498 49:0.938355 50:0.446204 51:0.260441 52:0.733787 53:0.666126 54:0.226771 55:0.512532 56:0.772267 57:0.442892 58:0.368961 59:0.77522 60:0.587943 61:0.248602 62:0.559171 63:0.539525 64:0.419726 65:0.154463 66:0.49153 67:0.664026 68:0.384407 69:0.635378 70:0.471812 71:0.53439 72:0.477752 73:0.551753 74:0.328914 75:0.604427 76:0.398019 77:0.64658 78:0.348896 79:0.501372 80:0.513117 81:0.335609 82:0.209473 83:0.428653 84:0.223323 85:0.542511 86:0.594519 87:0.393238 88:0.268042 89:0.393562 90:0.227927 91:0.351023 92:0.473401 93:0.392301 94:0.428614 95:0.429044 96:0.487238 97:0.350024 98:0.173129 99:0.416772 100:0.440531 101:0.429996 102:0.62468 103:0.350346 104:0.622634 105:0.401622 106:0.411032 107:0.434111 108:0.394103 109:0.477463 110:0.392246 111:0.435332 112:0.450356 
-0.0 0.0 0.0 0.0 0.2636686693229569 0.0 1.0 0.0 0.0 0.0 0.0 0.0 0.0 0.0 0.0 0.0 0.0 0.0 0.0 0.0 0.0 0.0 0.0 0.0 0.0 0.3556207197060074 0.0 0.0 0.0 1:0.147727 2:0.282957 3:0.092779 4:0.036233 5:0.105567 6:0.033192 7:0.114564 8:0.102174 9:0.295694 10:0.233618 11:0.982161 13:0.211775 14:0.221787 15:0.300092 16:0.435319 17:0.23204 18:0.036026 19:0.02423 20:0.333899 21:3.0E-6 23:0.141057 24:0.355146 25:0.021541 26:0.380812 27:0.061849 28:0.022127 29:0.031927 30:0.107717 31:0.705492 33:0.002701 34:0.11473 35:0.03629 36:0.100311 37:0.321189 38:0.143206 39:0.096328 40:0.307646 41:7.0E-6 43:0.159887 44:0.331003 45:0.077549 46:0.309335 47:0.065645 48:0.031873 49:0.962125 50:0.462476 51:0.242296 52:0.784975 53:0.669878 54:0.116242 55:0.646774 56:0.772986 57:0.313628 58:0.441071 59:0.834504 60:0.507844 61:0.188175 62:0.686585 63:0.525764 64:0.287985 65:0.082716 66:0.50233 67:0.720902 68:0.337583 69:0.626559 70:0.468898 71:0.607292 72:0.421229 73:0.527287 74:0.407582 75:0.576684 76:0.384062 77:0.648784 78:0.339524 79:0.531882 80:0.496725 81:0.299225 82:0.036966 83:0.111826 84:0.133601 85:0.166255 86:0.150413 87:0.20511 88:0.188524 89:0.224508 90:0.239029 91:0.17209 92:0.304542 93:0.202944 94:0.279564 95:0.287445 96:0.229986 97:0.217358 98:0.074293 99:0.193883 100:0.296374 101:0.23294 102:0.448984 103:0.177 104:0.493359 105:0.340925 106:0.30529 107:0.387005 108:0.293906 109:0.431205 110:0.337046 111:0.329315 112:0.365328 
-0.6092879362787784 1.0 0.0 1.0 0.0 0.5490879210543002 0.19132847360388427 1.0 1.0 1.0 1.0 0.0 0.0 1.0 1.0 1.0 0.0 0.06010352978621888 1.0 1.0 1.0 1.0 0.0 1.0 1.0 1.0 1.0 1.0 1.0 1:0.268566 2:0.478775 3:0.322756 4:0.685358 5:0.125379 6:0.093193 7:0.31423 8:0.427064 9:0.60032 10:0.199614 11:0.98193 12:5.22E-4 13:0.420337 14:0.18986 15:0.708663 16:0.28891 17:0.309096 18:0.46476 19:0.647775 20:0.612338 21:8.1E-5 22:4.62E-4 23:0.53951 24:0.620462 25:0.656738 26:0.73369 27:0.378479 28:0.465862 29:0.094826 30:0.20161 31:0.709841 33:0.009592 34:0.200692 35:0.099887 36:0.195819 37:0.310917 38:0.175689 39:0.335811 40:0.428343 41:4.0E-5 42:4.58E-4 43:0.21227 44:0.433467 45:0.291225 46:0.403803 47:0.225542 48:0.308536 49:0.83046 50:0.246144 51:0.520135 52:0.251832 53:0.64263 54:0.427563 55:0.695385 56:0.448795 57:0.558624 58:0.631988 59:0.442729 60:0.527017 61:0.345531 62:0.678757 63:0.309627 64:0.566973 65:0.120209 66:0.492468 67:0.724396 68:0.30755 69:0.647194 70:0.464168 71:0.643826 72:0.368273 73:0.542411 74:0.422673 75:0.577487 76:0.371942 77:0.640284 78:0.372717 79:0.504778 80:0.51139 81:0.45934 82:0.429655 83:0.825905 84:0.555752 85:0.649147 86:0.566203 87:0.521061 88:0.559578 89:0.408289 90:0.405438 91:0.407861 92:0.49263 93:0.433229 94:0.392687 95:0.410627 96:0.473712 97:0.308086 98:0.433424 99:0.409945 100:0.501852 101:0.4723 102:0.441157 103:0.509007 104:0.499498 105:0.452854 106:0.381269 107:0.434686 108:0.500171 109:0.555527 110:0.509207 111:0.466379 112:0.589049 
-0.0 0.0 0.0 0.0 0.0 0.3511268493123533 0.6365336632439907 0.0 0.0 0.0 0.0 0.07068111680100128 0.0 0.0 0.0 0.0 0.0 0.0 0.0 0.9481379034359898 0.0 0.07603308883698688 0.0 0.0 0.0 0.0 0.0 0.0 0.0 1:0.123046 2:0.337899 3:0.091864 4:0.159783 5:0.111555 6:0.069344 7:0.097261 8:0.205075 9:0.345977 10:0.304046 11:0.982037 13:0.194363 14:0.290645 15:0.351891 16:0.492432 17:0.243767 18:0.048818 19:0.162942 20:0.465125 21:9.0E-6 23:0.177638 24:0.484581 25:0.173532 26:0.489173 27:0.071141 28:0.076367 29:0.06815 30:0.15595 31:0.706298 33:0.009253 34:0.155505 35:0.071394 36:0.162263 37:0.319984 38:0.146481 39:0.190649 40:0.43679 41:8.0E-6 43:0.17591 44:0.46493 45:0.15618 46:0.406642 47:0.053882 48:0.071558 49:0.933002 50:0.387245 51:0.321613 52:0.844038 53:0.4698 54:0.254749 55:0.750907 56:0.620632 57:0.293241 58:0.553898 59:0.860484 60:0.275268 61:0.323285 62:0.873684 63:0.239224 64:0.356627 65:0.122837 66:0.468881 67:0.725471 68:0.374599 69:0.569725 70:0.500301 71:0.592115 72:0.419957 73:0.53517 74:0.372172 75:0.625171 76:0.358833 77:0.621998 78:0.411756 79:0.480042 80:0.507234 81:0.345472 82:0.178089 83:0.347783 84:0.218423 85:0.492028 86:0.645025 87:0.423921 88:0.382443 89:0.649713 90:0.435155 91:0.298543 92:0.426821 93:0.330529 94:0.279816 95:0.392818 96:0.44262 97:0.286372 98:0.206705 99:0.282477 100:0.506338 101:0.319023 102:0.596106 103:0.400248 104:0.433702 105:0.64774 106:0.310206 107:0.542244 108:0.473704 109:0.434926 110:0.579071 111:0.383583 112:0.476798 
-0.0 0.9465986417140033 0.0 0.0 0.0 0.11785230338380817 1.0 0.0 1.0 0.16988187393095688 0.0 0.9547371406289452 0.0 0.0 0.8250420929238272 0.0 0.0 0.2769326909134426 0.07328438913981375 1.0 0.0 1.0 0.018230053820443837 0.5194790265512822 0.7413521076432859 0.0 0.08194455838332444 0.0 0.0 1:0.131591 2:0.270139 3:0.106053 4:0.13198 5:0.109028 6:0.032962 7:0.097567 8:0.108892 9:0.282762 10:0.293569 11:0.982295 13:0.187098 14:0.277258 15:0.290047 16:0.471948 17:0.233848 18:0.048854 19:0.150257 20:0.487041 21:2.7E-5 23:0.171006 24:0.507617 25:0.155 26:0.53024 27:0.091998 28:0.071949 29:0.032224 30:0.084109 31:0.705954 33:0.004582 34:0.087911 35:0.036667 36:0.087267 37:0.319298 38:0.143362 39:0.098099 40:0.299908 41:1.2E-5 43:0.117063 44:0.328845 45:0.076632 46:0.283764 47:0.060554 48:0.056959 49:0.925564 50:0.5046 51:0.245148 52:0.670418 53:0.574283 54:0.279818 55:0.753179 56:0.554374 57:0.284973 58:0.686262 59:0.721953 60:0.245857 61:0.420171 62:0.775395 63:0.333794 64:0.410414 65:0.056865 66:0.511076 67:0.720269 68:0.326064 69:0.610983 70:0.480116 71:0.623331 72:0.39413 73:0.516407 74:0.444708 75:0.575519 76:0.359792 77:0.66634 78:0.35403 79:0.508608 80:0.498178 81:0.477698 82:0.302631 83:0.20247 84:0.733134 85:0.366781 86:0.618753 87:0.51323 88:0.53817 89:0.538619 90:0.407243 91:0.372551 92:0.344229 93:0.333283 94:0.302302 95:0.485611 96:0.285596 97:0.486415 98:0.212813 99:0.308525 100:0.520401 101:0.257042 102:0.539772 103:0.439741 104:0.436407 105:0.571986 106:0.299002 107:0.39482 108:0.472945 109:0.35219 110:0.415136 111:0.362632 112:0.360687 
-0.0 1.0 0.5264818058319183 1.0 0.0 0.8688785978550096 0.0 0.7479172983548806 0.9624640217329631 0.0 1.0 0.4994011533940268 0.0 1.0 0.9095581774880384 0.21920308429938612 0.0 0.0 0.5170307125724182 0.10183112371124747 1.0 0.0 0.0 0.798170183208844 0.0 0.0 0.8007710438657858 1.0 0.5281924345283088 1:0.082311 2:0.636416 3:0.117445 4:0.485478 5:0.116743 6:0.197237 7:0.104242 8:0.571835 9:0.655485 10:0.437814 11:0.981667 13:0.193548 14:0.419738 15:0.69293 16:0.570353 17:0.278038 18:0.20672 19:0.456449 20:0.725291 21:1.6E-5 23:0.229105 24:0.734489 25:0.44746 26:0.721883 27:0.116512 28:0.370702 29:0.195619 30:0.357144 31:0.706534 33:0.022268 34:0.359836 35:0.195828 36:0.339765 37:0.326622 38:0.160758 39:0.486145 40:0.654881 41:9.0E-6 43:0.14396 44:0.657415 45:0.392823 46:0.565601 47:0.066897 48:0.349973 49:0.813252 50:0.162915 51:0.696729 52:0.359585 53:0.605564 54:0.352619 55:0.668255 56:0.565104 57:0.304681 58:0.788559 59:0.313743 60:0.748289 61:0.183764 62:0.762698 63:0.294709 64:0.449047 65:0.159921 66:0.387968 67:0.809952 68:0.259566 69:0.640075 70:0.47025 71:0.595359 72:0.458647 73:0.431891 74:0.540149 75:0.483707 76:0.447769 77:0.579739 78:0.430434 79:0.4588 80:0.512066 81:0.46163 82:0.266694 83:0.656954 84:0.768296 85:0.450028 86:0.441483 87:0.64894 88:0.540039 89:0.625797 90:0.611137 91:0.586717 92:0.663707 93:0.539852 94:0.482303 95:0.548395 96:0.559759 97:0.383728 98:0.426047 99:0.32668 100:0.552109 101:0.354934 102:0.436178 103:0.513625 104:0.444659 105:0.608467 106:0.473066 107:0.503514 108:0.614952 109:0.626059 110:0.541544 111:0.49913 112:0.572358 
-0.12898581599412878 0.06291552893994938 0.0 0.0 0.14604614864600485 1.0 0.0 0.0 0.0 1.0 0.9842280981911692 0.04225212897201422 0.003438243274464829 0.4984701455730615 0.10699706586372898 0.0 0.0 0.0 1.0 0.0 0.8912414514711844 0.0 0.31521941401984555 0.0 0.574928909454706 0.0 0.14978842444520857 0.0 0.0 1:0.081645 2:0.552777 3:0.074205 4:0.380285 5:0.12602 6:0.288068 7:0.086666 8:0.538254 9:0.551746 10:0.419778 11:0.981757 13:0.158029 14:0.404209 15:0.556965 16:0.58334 17:0.274661 18:0.070228 19:0.396958 20:0.614925 21:1.7E-5 23:0.17055 24:0.62776 25:0.404115 26:0.595213 27:0.060682 28:0.187262 29:0.284978 30:0.629718 31:0.70899 33:0.025446 34:0.618632 35:0.28139 36:0.596441 37:0.320215 38:0.163883 39:0.50636 40:0.582188 41:1.0E-5 43:0.147221 44:0.592451 45:0.412381 46:0.540268 47:0.041151 48:0.160743 49:0.866583 50:0.235022 51:0.620095 52:0.469903 53:0.483444 54:0.558022 55:0.388374 56:0.834572 57:0.100873 58:0.810135 59:0.469257 60:0.471961 61:0.537315 62:0.412649 63:0.688057 64:0.072802 65:0.210255 66:0.317663 67:0.803601 68:0.314582 69:0.553396 70:0.563348 71:0.395813 72:0.676694 73:0.241646 74:0.674794 75:0.444422 76:0.435268 77:0.672222 78:0.234963 79:0.716651 80:0.274579 81:0.54464 82:0.279979 83:0.609886 84:0.497358 85:0.241723 86:0.602727 87:0.619502 88:0.363918 89:0.382635 90:0.449389 91:0.598393 92:0.516105 93:0.480041 94:0.641252 95:0.523918 96:0.351672 97:0.532758 98:0.357191 99:0.245561 100:0.294877 101:0.188777 102:0.440322 103:0.567668 104:0.725821 105:0.796434 106:0.437617 107:0.451058 108:0.408698 109:0.429562 110:0.563886 111:0.571023 112:0.677981 
-0.32449220569433074 0.0 0.0 1.0 0.7684763378620417 1.0 0.0 1.0 0.30445748113466914 0.0 1.0 0.0 1.0 1.0 1.0 0.8345179282901241 0.0 1.0 1.0 0.0 1.0 0.0 0.0 0.006913779939208498 0.0 0.25097908594388374 7.501908329552269E-4 0.1694489639493457 1.0 1:0.313985 2:0.522298 3:0.302571 4:0.366553 5:0.120291 6:0.13526 7:0.272479 8:0.330818 9:0.652612 10:0.167438 11:0.982247 13:0.432589 14:0.157524 15:0.741421 16:0.256536 17:0.518212 18:0.410475 19:0.445824 20:0.531626 21:2.13E-4 23:0.4128 24:0.539977 25:0.533562 26:0.674762 27:0.481476 28:0.353999 29:0.135005 30:0.265396 31:0.711103 33:0.018086 34:0.263858 35:0.137312 36:0.261174 37:0.316941 38:0.163242 39:0.319055 40:0.393326 41:6.8E-5 43:0.165045 44:0.406587 45:0.270563 46:0.371312 47:0.210198 48:0.202057 49:0.88683 50:0.106818 51:0.712908 52:0.389056 53:0.546055 54:0.547915 55:0.385409 56:0.631702 57:0.526863 58:0.520077 59:0.474341 60:0.727033 61:0.310179 62:0.555907 63:0.441168 64:0.372988 65:0.156684 66:0.440693 67:0.798363 68:0.288808 69:0.584127 70:0.519107 71:0.542716 72:0.457261 73:0.442564 74:0.536652 75:0.463665 76:0.45438 77:0.602557 78:0.348516 79:0.530278 80:0.46878 81:0.49502 82:0.634815 83:0.353881 84:0.380667 85:0.420405 86:0.416014 87:0.486272 88:0.50508 89:0.673178 90:0.735861 91:0.60092 92:0.49911 93:0.433276 94:0.396348 95:0.449304 96:0.49626 97:0.341418 98:0.581296 99:0.187442 100:0.291701 101:0.284782 102:0.330667 103:0.525111 104:0.448659 105:0.546361 106:0.477611 107:0.426078 108:0.523115 109:0.49061 110:0.431349 111:0.456821 112:0.602708 
